
#include "network_evaluate.h"



float linear(float num) {
	return num;
}



float sigmoid(float num) {
	return 1 / (1 + exp(-num));
}



float relu(float num) {
	if (num > 0) {
		return num;
	} else {
		return 0;
	}
}

static const int structure[1][2] = {{64, 18},{64, 64},{8, 64}};
static float output_0[64];
static float output_0[64];
static float output_0[8];
static const float layer_0_weight[64][18] = {{-0.8513814,1.0367459,0.67590314,0.5663574,0.012824446,0.14837821,-0.76080585,-0.24120477,0.3959784,-0.96412545,0.81739444,-0.19371778,1.2128595,-0.5608975,-0.6039407,-0.12240702,0.13289647,0.05302263},{-1.5794036,-0.985961,-0.013382344,0.49498904,0.3515399,0.19808279,-0.615543,-0.09023033,0.8921474,-0.88156307,-0.61914593,0.33674577,-0.8860441,-1.0282474,-0.7504466,-0.016464975,-0.006063916,0.3878963},{-0.9407173,-1.5141861,0.41951063,-0.07389747,-0.2390535,-0.4610631,1.1442901,-0.67940605,0.7189922,-0.52170354,0.24320763,0.4637079,0.27573642,1.0044345,-0.23594138,-0.0557752,-0.115638025,0.15569554},{0.45744106,0.036723364,0.46670657,0.8419298,0.6545794,0.34895867,-0.7277329,-0.85662943,1.2447475,-1.0640932,0.47853398,-0.029950049,-0.042044714,-0.9368458,-0.09965626,-0.1459022,0.24614191,-0.48124954},{0.22061868,-0.16821387,-0.54466987,-0.17320353,0.36242175,0.00046313557,0.38278484,0.14428695,-0.56930465,-1.1672472,0.8837002,-0.43193743,0.64027464,2.3776033,-0.63674736,-0.15515302,-0.04847117,0.37156785},{-0.5072212,0.58694893,-0.6463183,0.3082729,-0.28638697,0.3288444,-0.72947836,-0.39071634,0.44061145,0.9199385,0.18006103,0.3849017,0.41482475,2.3614385,0.04396639,-0.05097064,-0.004083511,0.067409076},{1.0099777,-0.1897616,-0.18382898,0.8594448,0.15887278,-0.09299082,0.79002064,-1.0340396,-1.6068339,-0.68950534,0.19077155,-0.5264868,1.209427,0.69194835,0.26664665,-0.030400611,0.025930906,-0.04432497},{0.4589908,-0.43527204,0.91044754,0.086605616,-0.019814057,0.37203556,-0.6839584,0.4852071,1.3557858,0.22404157,-0.091963254,-0.6447899,-0.49820548,1.1669877,0.73877525,-0.13844918,-0.0009432061,0.045775384},{-0.47610337,0.08670492,1.6485468,-0.5913869,-0.18270074,-0.07955825,0.75579935,0.49530894,0.34097335,0.09137007,0.52698994,0.5067076,0.47661498,-1.1847558,-0.3123612,-0.009869843,0.09244317,-0.09904689},{0.21804918,0.10470767,0.08630466,-0.12005532,-0.19648315,0.14015721,0.41434106,-0.24365766,-0.008153287,0.079657,-0.2579166,0.58136433,2.7908716,-1.981269,0.3163532,-0.17869616,-0.28280792,-0.2149063},{0.11165102,-0.19688532,-0.088116616,-0.33648437,0.042932674,0.007751303,0.28372458,0.35206097,-0.43985707,0.057724036,0.44217297,-1.6046939,-1.3457423,-2.8891606,0.9072568,-0.21569706,0.12532434,-0.06085687},{0.5785963,0.09551818,0.14518428,0.0330829,0.71789765,-0.63228077,-0.7951675,-0.57233447,-1.0617245,0.3524924,0.82807803,0.9769296,-0.17298883,-0.25938976,-2.0811234,0.12533322,-0.09202088,-0.53547275},{-0.38351363,0.0489918,0.045294266,0.36694252,-0.17198321,0.19118808,0.15639207,0.4955985,-0.7247492,0.09061122,-0.502858,0.85000736,1.4179693,0.52675444,0.47989774,0.20346338,-0.32193494,-0.18717392},{-0.33382738,0.055366695,0.20506021,0.368163,-0.5412878,0.50225097,0.98219365,-1.2573823,-0.18949872,-0.722785,-1.0765622,-0.28697962,0.10057255,0.25299007,0.057597782,-0.027213922,-0.066279255,-0.2552289},{1.3388222,1.4613683,-0.15388197,0.43329003,0.4226095,0.5561783,0.7978505,-0.7302516,0.7376027,0.31791568,0.2783783,0.9568943,0.30205116,-0.3237016,-0.22411704,-0.024023943,-0.0049255583,-0.08124351},{-0.5749546,-0.04905857,0.462768,0.3122082,0.112627,-0.1613546,0.48405564,-0.24115914,-1.4697361,0.6801918,-0.47775403,-0.07882957,-1.1971223,-0.85437554,-0.0063922615,-0.021202656,-0.29435936,0.04556384},{0.7898956,0.4878736,0.7809683,-0.17143796,-0.35328364,-0.4563732,0.011991294,-0.41122997,0.3679074,-0.37417483,0.41859654,-1.8805231,-1.5352812,1.2283739,0.06592481,0.10746488,0.21144557,0.11036249},{-0.004578025,-0.81779975,-0.8700046,0.14140968,0.15265103,0.049520943,-0.05659987,1.0303727,0.51007277,0.79855895,0.15157835,-1.4009871,0.97183156,1.3215891,0.56964886,0.2185241,0.0071200924,-0.26069006},{1.2841952,-0.27335867,0.17057094,0.1065594,-0.39178902,0.14563791,1.241539,-0.13421732,0.9331384,0.23025516,0.8516002,-0.38916314,1.0893356,-0.46231577,0.3366827,-0.2443945,0.0431043,0.27502027},{0.44709906,-0.8419518,-0.043590814,0.58911276,-0.26929542,0.26977047,-0.20808804,0.43119183,1.0177053,0.5529241,-0.05872672,0.47513336,4.2055964,0.14652295,-0.6934029,-0.11434144,0.11046779,-0.25221035},{-0.079224184,0.059477836,1.1026815,0.0800781,0.23717262,0.49848875,-0.24798808,-0.40587687,-0.87380004,0.5221262,-1.0039815,-0.09766784,-0.664765,-1.7038635,0.17698361,-0.01542335,-0.12727506,0.17100562},{0.3455805,0.13467506,-0.363228,0.25018173,-0.39418486,0.045526963,1.056473,0.097738326,1.1055115,0.8174863,0.32357734,-0.91598755,1.5101753,1.017458,-1.8623555,-0.030158296,0.21693441,0.12200979},{-0.06437597,2.2189503,0.057134908,0.18671781,0.8690995,-0.49057356,-0.43402818,0.36062893,0.59576046,-0.25432792,0.08292965,0.32696664,-1.349599,-0.27455917,-1.0317299,-0.11847916,0.114641026,-0.19512069},{-0.1172264,-1.2971224,-0.91871434,0.6127379,-0.27975526,-0.55132663,-0.66810197,0.7044723,0.9545512,-0.13849296,-1.0225155,2.5821557,-0.8349341,2.0201278,-0.45636642,0.030464148,-0.16523774,-0.24111982},{-0.2107351,-0.929931,-0.9071869,0.22385584,0.10489397,0.32918546,-0.7292183,-0.107845366,1.0390816,0.27341154,-0.0074857925,-1.0961038,-0.10457903,-1.0045931,-0.35071397,-0.41124895,-0.05622499,-0.12991685},{-1.196292,-0.17935053,-0.49462286,-0.2722697,-0.5813568,0.9050795,0.52997875,0.622745,0.045642145,-0.26119113,0.17454241,0.9420324,0.00885291,1.3346728,-0.74138904,0.06326883,0.15813453,0.20501988},{0.64207304,0.77970785,1.3818396,0.085020386,0.078931615,0.7467908,0.41605958,0.93136567,1.016405,0.5301183,-0.102271535,0.5419382,-0.9113528,-0.36248216,-0.7796524,0.19484456,0.050511073,-0.3891098},{0.10502806,0.1797798,-0.83888876,0.2925399,0.48615524,-0.3223646,0.5883893,-0.6143662,0.38319755,1.417284,0.114073224,0.54447764,1.0717298,-1.271836,-0.20203672,0.012766718,0.0027821579,0.5294313},{0.48227522,0.76781297,0.66205543,-1.0639657,0.5718314,0.46875775,-0.12069167,-0.9623493,-0.06193425,0.5353947,-0.40176818,-0.12871848,-0.56158173,-0.08746459,-1.8060585,-0.003825217,0.015865823,0.27527508},{0.7689833,0.74432224,1.0407331,-0.09267241,0.49258006,0.082046874,-0.56242466,-0.31925374,0.5668981,1.5198807,-0.117822014,-0.60363513,-1.1456883,-0.047668274,-0.3083915,0.06427706,-0.12365167,0.045130365},{-0.02941307,-0.5546087,-0.057995245,0.77199036,-0.48544228,-0.77577305,0.114513144,0.6266713,0.7755238,-0.3232794,0.25277984,-1.7487615,0.0030870384,-0.2177835,0.4746033,0.022163821,-0.0031754267,0.016025525},{-0.1454608,0.693311,-0.42375177,-0.029873822,0.5080885,-0.24710494,-0.071283,-0.2726576,0.5569626,1.0455148,0.1426032,-0.7020125,2.7220438,-0.8924099,-1.2803271,0.20246458,-0.0462381,-0.060532786},{0.7184421,0.7896098,-0.8343947,-0.114208765,-1.1409035,0.4453451,0.6716345,-0.3472797,-0.09408609,0.7388851,-0.4575261,0.49201992,0.048825797,-1.2042089,-0.32879558,-0.14918336,-0.054523636,0.07198277},{2.0324407,-0.24924834,-0.43632692,0.24693006,-0.053908896,-0.44776076,-0.2718088,0.86001027,0.63762236,0.45711732,-0.30130565,-1.109445,0.298058,1.4690858,-0.25900373,0.02847347,0.028186534,0.26151863},{0.25298512,0.06414214,-0.06572418,0.29197213,0.42457086,1.40647,0.3701929,-0.31566477,-0.93736935,-0.013147033,-0.61678064,-0.3962664,0.8567128,-0.502259,-0.21930431,0.005646448,-0.0070648366,-0.03664995},{-0.566689,0.35616013,0.29217935,-0.5306256,-0.30767474,-0.3050066,-0.45468387,0.7835849,-1.1340567,-1.0579844,0.32588646,0.007031919,-0.31560186,-0.14537862,-1.0768245,-0.08235314,-0.19448335,0.0049503115},{-0.10529355,-0.005923561,-0.34495914,0.29622856,0.28376672,0.6851686,0.7385161,0.56071824,1.2856998,0.21884677,-0.015613377,0.7957925,0.49641985,1.2445422,0.75655574,-0.2634987,0.054731075,-0.030784048},{-0.75848764,0.34587803,-0.5207294,0.35405415,-0.30793908,-0.11855242,0.9771919,-1.0629964,0.27867725,-0.02958903,-0.5061686,-1.5095001,0.92585975,-2.2480154,-0.17623788,0.17096682,0.19031711,0.1751946},{0.52681094,-0.17102616,0.47328115,0.19388838,0.08670542,-0.107939,-0.28262055,-0.06648835,-0.3588984,-0.23872463,0.3281832,2.351081,-1.3385161,-0.86630833,-1.0804954,0.18777965,0.046743877,-0.008659112},{-0.06610048,-0.34434697,-0.9586383,0.4387159,-0.45253947,-0.78547364,-0.586203,-0.39918756,-0.47408065,0.62982714,-1.031142,-0.11115686,-1.037418,-1.8769392,0.5748589,-0.060515273,-0.15969597,-0.051981457},{-0.3509955,0.015571193,-0.0901727,0.5027931,-0.39724687,0.48907095,-0.031360094,0.071266726,-1.9922823,0.22144344,1.5868123,-0.57927215,0.3926357,-0.81730795,-0.015024471,-0.24920622,-0.11786227,0.02271345},{-0.10299163,-0.20502746,-0.30369404,0.011465784,0.1613341,0.1025103,0.21601985,0.37875795,0.18261014,0.20068388,0.7509426,0.03552716,-3.6432412,-0.4792802,-0.14239466,0.022360964,0.09505521,0.33148375},{0.21834092,0.2966795,0.55776864,-0.18329619,-0.24042943,-0.38314807,0.028170316,-0.5611016,2.7164874,-0.9587993,-0.30507526,1.2596033,-1.5952691,-0.22550175,0.5676951,-0.06753221,-0.13704994,0.08902181},{0.3479403,-0.6135692,0.7477873,-0.63626033,0.04214012,0.07250006,0.36828902,0.3312916,0.17382728,-0.51307434,-0.3077725,-0.07727648,-0.59897393,1.4317442,0.23938897,0.18542723,-0.1269819,0.058591045},{0.71704894,0.58832586,-1.6850057,0.33246619,-0.16604646,-0.18670428,0.64521325,1.3547189,-0.008616829,-0.36976376,0.20255467,0.16304493,-0.47703016,1.709711,-0.42723927,-0.005570904,-0.2003769,0.17062403},{-0.097864114,-0.408007,-1.9806789,-0.12500295,0.31429502,0.12571613,0.8779127,-0.08176884,0.07269419,0.077845015,0.14912693,-0.059558056,0.046477325,1.622484,-0.6229758,-0.039884727,0.014262155,-0.08503477},{2.067182,-0.9672426,-0.54396796,0.07114689,-0.07298418,0.40631172,0.862744,0.32751676,-0.41249257,-0.37775838,-0.18655294,0.05768482,-1.2264428,0.50315714,-0.6840063,-0.06954275,0.04302601,-0.15020269},{0.046519764,-0.27149287,-0.6076025,0.37590984,0.33874366,-0.1598905,-0.4518449,-0.3191851,1.0003909,-0.7277343,-0.46219903,0.2592274,0.3226216,-2.409368,0.3407064,-0.18569863,-0.12827107,0.11270555},{-0.63324505,1.0119383,-0.10761829,0.4508846,0.4553605,0.45745397,-0.25221115,-0.54452616,-0.29821187,0.2205622,-0.7339342,0.8808672,-2.3675795,0.26267868,-0.48023143,-0.009681452,-0.06257259,-0.4477514},{-0.79132,1.1854242,-0.6834306,-0.16802816,0.5134239,0.35368204,0.8740514,-0.44996524,-0.10856592,0.30576965,0.6331279,0.8246677,-0.90076727,0.18563387,-0.9148088,-0.047799796,0.13471691,-0.4523434},{-1.4353654,1.3873836,0.620582,0.3637611,-0.2666456,-0.45778155,0.13782257,-0.04045293,0.690588,0.11865668,-0.30437604,0.8459795,-1.063819,-0.2502179,-1.3151929,0.11171816,-0.23023151,0.02734474},{-0.61883,-0.039130963,-0.23291193,-0.8051238,0.57543635,-0.33963692,0.47615615,0.0547292,-0.4156605,0.37261206,-0.8025481,-0.6194355,-1.9853134,0.6839227,0.74117905,-0.1970884,0.03211892,-0.0011200982},{0.17014293,-0.51279306,0.007627246,-0.42818788,0.12272305,0.49200404,-0.62897366,-0.026022965,-0.19862422,-0.3996048,1.2741507,0.49828672,0.3594684,1.1038961,0.029114094,-0.23604341,0.14122306,0.36382934},{-0.7481075,0.2204754,-0.09045141,0.09821426,0.35984257,0.71548516,0.44116974,0.23872039,0.30148008,-0.29124588,-1.8055576,-0.060430445,-0.043822702,-1.8362743,-0.02582258,0.07666223,0.10989197,-0.2036441},{0.5178884,0.7690617,0.5705407,0.021414243,0.1817552,-0.3158363,-0.805542,0.65321845,-0.32111362,-0.13148199,-0.05597486,0.19819601,-0.8257423,0.8899065,-0.8596149,-0.1908833,0.011993523,-0.40427577},{-0.0072913384,1.1923543,-0.268133,-0.23562385,1.1155409,0.32102397,-0.22851022,0.09436646,-0.06982183,0.5096961,0.96726793,-0.93558794,-1.355513,-0.97542375,0.54844135,0.044698387,-0.025532104,-0.009165621},{-0.8390614,0.16352487,1.6530629,0.15542462,-0.13115245,-0.23247439,0.0497721,0.00052663725,-0.20315748,0.3378525,0.1725926,-0.18095355,0.73247,0.9351253,-0.8482374,0.16073376,-0.019840684,-0.2237473},{-0.24950546,-1.0897794,-0.53300196,-0.09025669,0.18755445,-0.39676192,-1.1167804,-0.9107077,0.06855113,0.053592823,0.72401506,-1.7699579,-0.8761085,-0.0046279817,-2.5796547,0.09825162,0.010945972,-0.17721677},{-0.05742096,1.0723504,0.20855106,-0.20219791,-0.6092448,0.67435867,-0.7028491,0.36236197,0.119988166,-0.40929154,1.1776202,-0.5760646,-1.621637,0.72083324,-0.738614,0.054375153,-0.18821591,0.047100376},{-0.9330012,-0.4731246,-1.5320224,-0.4074641,-0.045518566,-0.5117897,-0.20869511,-0.723459,-1.1071905,-0.56683075,0.47932452,-0.5246811,-1.0413058,-1.6551796,-0.052011143,-0.0063446974,0.047533575,0.12306187},{-0.3438798,0.27709648,-0.040241256,-0.16207378,0.4441371,-0.13322692,-0.3222971,-0.03716781,-0.44674528,0.23108107,0.21871105,-0.3100392,-1.107257,-0.39894664,0.9481941,-0.019577293,-0.19600452,0.029443558},{-0.045549273,-0.080912426,-0.44374737,0.19394828,-0.36022097,0.50560826,-0.4493855,-0.20333926,2.4151356,-0.3184707,-0.84413004,0.33692652,-1.8679668,-1.4782435,0.13026598,-0.11600701,0.15124759,-0.29506722},{-0.068804145,-1.2613482,0.6777984,-0.043203983,-0.20369278,0.29325604,-0.8970234,0.40717062,0.11495174,-0.034277044,-0.20679395,-2.8134825,-0.5695374,-0.6608721,0.06495845,-0.04548714,0.039847348,0.016894318},{-0.35882437,0.6511174,0.9213756,0.08307549,0.69292694,0.27615502,0.25007844,0.85121995,0.09176615,0.14317979,0.55472785,-0.22514726,2.0582922,0.94191545,-0.08362017,-0.21139987,-0.15053007,0.22448042}};
static const float layer_1_weight[64][64] = {{0.13413028,-0.4623966,-0.41349456,0.52162695,-0.16002646,-0.6017213,-0.14621122,-0.35423848,0.18119754,0.2894197,0.3884726,0.25399476,-0.46227103,0.42073286,0.18649457,-0.6183454,-0.018169532,-0.011575024,-0.48594785,-0.45667085,0.13271807,0.04353006,0.40684828,0.343961,-0.37840766,0.49836725,-0.2484524,0.40443328,0.65942764,-0.24692065,-0.94631714,-0.31370616,-0.29685438,0.32380763,0.048726108,-0.03140423,0.58182824,-0.06944716,0.085541934,-0.18819365,-0.37421727,-0.38851765,-0.7216255,0.26748964,1.0230137,0.28321853,-0.006569355,0.07142008,-0.49518752,-0.3346634,-0.26031345,-0.11201011,0.13440102,-0.5276206,0.21172099,-0.5879417,0.5265265,0.35073885,-0.042135492,-0.1204662,-0.006114132,-0.40586394,0.51781297,0.21912827},{-0.22066525,0.23174192,0.22997206,-0.3919681,-0.5422675,-1.4644549,-0.44715622,0.49067083,0.43611652,-0.85564464,0.42325348,-0.0670534,-0.23442242,-0.017692387,0.43952817,0.35964444,-0.1085441,-0.023551127,0.24408236,-0.582312,-0.3141108,0.123556145,-0.8584415,-0.06361459,-0.66294235,-0.43467426,-0.25842533,0.345253,-0.4393807,0.20403087,0.02721867,-0.33764812,0.4024158,-0.50641674,-0.038334444,0.008303172,0.5019672,0.049454875,0.24965383,-0.034186404,-0.01974889,-0.041438118,-0.6537992,-0.004905572,0.14621536,-0.31987223,0.4249255,0.5509328,0.51002204,-0.26144296,-1.240299,-0.8233467,-0.6405987,-0.006928735,-0.6864332,0.17148553,0.30052012,0.5909509,0.48991546,-0.20687337,-0.031820897,0.23160215,-0.6807275,0.52410686},{0.5953751,0.11935555,-0.3083458,-0.2123017,-0.27820164,0.061153766,0.006432749,-0.67163354,0.35541967,0.2820411,-1.1600307,-0.79432213,0.17586784,0.36250615,-0.3415398,0.58133215,-0.045169003,-0.29578876,-0.0737234,-0.7715675,-0.051979166,0.39179677,0.3740705,-0.033270027,0.94972783,-0.0017079742,0.41668966,-0.09390013,-0.21166895,-0.19105858,-0.8630864,-0.34472144,0.40790853,0.3398488,0.26899505,-0.016706519,-0.58617085,-0.04028219,-0.18256812,-0.41872552,-0.26998782,0.15584294,-0.44536757,0.04975215,0.35090676,0.2522647,-0.13101733,-0.5155947,-0.36161762,0.29443455,-1.3859547,0.44581893,-0.16762176,-0.20151924,-0.3066874,0.22820568,0.90610296,0.067840055,-0.10358213,0.18355714,-0.43083125,0.35827246,-0.4027511,0.4709183},{0.14543803,0.05603324,-1.0494971,-0.32607698,-0.116417564,-0.2746749,-0.027784854,-0.6067434,-0.5968319,0.5287361,0.68543214,0.08533601,-0.21572185,0.2065691,-0.2986599,-0.07284152,-0.41496265,0.0066820714,0.9272628,-0.5927608,0.22365764,0.44178474,-0.6524309,-0.16333005,-0.49392942,-0.13835867,-0.7361312,-0.116056204,0.8581,-0.27617174,0.19007313,0.005041919,0.106855884,-0.8034682,-0.6884734,-0.46774286,0.6769132,-0.004332916,0.40157127,-0.4308366,-1.0968539,0.2264646,-0.7076845,0.07768102,0.018815784,-0.41791514,-1.0757588,0.6113068,-0.3499517,0.76685095,-0.05580564,0.086242855,-1.0769951,-0.07725094,-0.4681243,0.2570575,-0.023123244,0.71967185,0.3940548,-0.9495627,-0.5508899,-0.023616567,0.0297123,-0.28555596},{0.34449857,0.05217996,-0.50511205,-0.07285836,0.2032686,0.043280352,-0.5408098,-0.5259998,-0.3073682,-0.484899,0.090552755,0.9303068,-0.12711622,0.1900393,-0.74172556,-0.22996816,-0.6255843,-0.39474195,0.0059791855,0.62544525,-1.0731423,-0.30276233,-0.5983824,-0.8222584,-0.059823956,-0.19251055,-0.54874223,0.7985213,0.50083846,-0.112047225,0.14505243,-0.041640945,-0.82027507,0.21342255,0.3169456,0.20896833,-0.019692902,-0.600938,-0.3798444,0.12791923,0.04053193,0.24182522,0.22061601,-0.80161,-0.11573023,0.24461743,0.57579136,-0.40887797,-0.77774316,-0.17572646,0.3176079,0.36961728,-1.1027831,-0.051627785,0.18362682,-0.5528748,0.30532324,-0.43691373,-0.24068163,-0.8529667,0.62433016,0.7661338,-0.17377545,-0.43096527},{0.19009076,0.15869014,-0.8677252,-0.073621765,-0.36434987,-0.10391813,0.06478745,-0.59626424,-0.5247486,0.23607531,-0.7254143,-0.38733682,0.102632955,-0.4237481,0.78473604,-0.91844034,0.5876552,-0.3454957,-0.8381574,0.57792604,0.18066904,0.33013847,0.2651204,-0.3173421,0.39084938,0.08314544,-0.58839345,0.6247389,0.23045778,0.166919,0.13317475,-0.99596953,-0.10382848,-0.123103686,0.08571647,0.38618055,-0.4451457,-0.34941292,-0.40130806,-0.4109516,-0.36021695,-0.80251396,0.56891316,0.24909803,-0.08948767,0.019043673,-0.19156034,0.027128465,0.83153266,-0.020096876,-0.0573341,0.09080289,0.2450717,-0.7582282,-0.4371325,0.11711324,-0.16098142,0.5111151,0.05986084,0.7145325,-0.94860303,0.29400665,0.49862012,0.081142545},{-0.67939794,-0.5331867,-0.31221077,-0.5889418,-0.23617077,-1.0695535,0.05464349,0.0036037012,0.2041578,-0.14927123,0.20642981,0.73383194,-0.026898919,0.49652004,1.1248825,-0.007021607,-0.24196042,-0.4411944,0.21024127,-0.5647269,0.09946343,0.3081291,-0.82943666,0.3792505,-0.19586074,-0.23065278,-0.0021587664,-0.11318144,-1.3532214,-0.95932126,-0.16179293,-0.19288544,0.26310185,-0.25056028,0.4267907,-0.9441197,-0.74884504,-0.093667634,-0.9482881,-0.26924574,-0.6527594,-0.43147174,-0.032051172,0.51028377,0.36580542,-0.024231356,-0.55564976,0.8958791,-0.0380728,-0.03162966,0.49051914,0.86827546,0.14809175,-0.7841223,0.03698668,0.4689844,-0.6110138,0.087647304,-0.7932225,0.025275463,-0.8184731,0.18741257,0.034837764,-0.4974922},{-0.13923767,0.014436863,-0.92347056,-1.0318011,-0.14990461,-0.734162,0.34617937,0.16836391,-0.043643355,-0.24705215,0.06050184,0.9134926,0.028602673,-0.35495588,-0.1852262,-0.73726714,-0.28432688,-0.64743197,0.21414112,-0.68679965,0.2397904,-0.07111871,-0.20177056,0.038563266,-0.074234396,-0.28574446,-0.54935926,-0.68312424,1.0302744,-0.0067188856,0.19276774,0.26357532,-0.42356408,-0.15859593,0.39129627,0.3672332,1.0994515,-0.7851507,-0.09932143,-0.5340781,0.8369353,0.18964475,-0.93849945,-0.23462234,0.23090462,0.19841664,-0.4384,0.19149043,0.21112794,-0.7567492,0.43089247,0.28348932,-0.43891075,0.06257939,0.16674058,-0.3802915,0.7554752,-0.4400798,-0.55290645,-0.048888676,-0.5523438,0.23076743,-0.6714124,-0.51687104},{0.04966345,-1.3053373,-0.5357616,-0.96325487,-0.1350101,-0.11656727,-1.129616,-0.3871185,0.14315952,-0.70864296,0.022723746,-0.28684032,-0.26629248,-0.3613874,-0.87205505,0.031913947,-0.7666029,-0.30215225,-0.48209512,0.63667315,-0.78371197,0.5450898,0.33541098,-0.7484409,0.24814905,-0.1388908,0.1653959,0.37413928,-0.22033101,0.64179933,-0.00815662,0.077256136,-0.7891236,-1.2729774,0.7986028,-0.18239343,0.37492728,-0.5522206,-0.33720452,0.41248837,0.37784636,-0.17736891,-0.73443264,-0.46748078,-0.39776573,-0.6483594,0.06973822,0.02411561,0.034506813,-0.9600518,0.2444279,0.33974072,-0.6654825,0.16259192,-0.33158332,-0.5874092,-0.22223997,0.4452623,0.31525537,0.04344378,-0.038168762,-0.05027393,0.24834283,0.34575066},{-0.14057884,0.46294144,0.059409738,-0.29565,0.43130255,-0.39271453,0.2739353,0.6645993,-0.42972448,-0.5907287,-0.5615448,0.2439047,-0.13757467,0.18907036,0.24158634,-0.9670775,-0.20557196,-0.29430938,-0.097139716,-0.24099472,0.50399256,-0.18086569,0.45969346,-0.2825431,0.0794796,-0.30743837,-0.28831008,0.5047569,-0.37000218,-0.40204507,0.50669664,-0.3107899,0.6629503,0.5355449,0.49221578,-0.326447,0.7525267,0.008993335,-0.40284255,0.35602257,0.32009786,-1.1045929,-0.68088794,-0.1747853,-0.20450264,-0.50618774,-0.5433562,-0.079361126,-0.12994821,0.43739045,0.47120047,0.5716965,-0.2783355,-0.44384286,-0.03832111,0.5334221,0.17339051,-0.17638919,0.8860206,-0.0114636645,0.057849817,-0.62486625,-0.9894529,-0.80640286},{-0.3737987,0.2291036,0.37576208,0.44722727,-0.37192014,-0.00066027505,-0.0522326,-0.8060103,0.4392557,0.03758737,0.45782378,0.17982306,-0.4227114,-0.24907707,0.3717563,-0.3122553,-0.12968005,-0.61938226,-0.51645756,-0.42322955,-0.52033263,0.12261836,0.06286393,0.26207426,0.19601667,-0.08971328,0.057377502,0.5346064,0.032173473,-0.32945222,0.21988805,0.26584736,0.23867674,0.073955126,0.43125522,0.22011496,0.30720666,0.19808069,-2.526847,-0.3512827,0.098834366,-0.27356705,0.8725683,-0.5445933,-0.56374854,0.5533615,0.45807242,-0.21332175,-0.09252329,-0.47942132,-0.17881039,0.41611996,-0.07414797,0.23911573,0.031165857,-0.5612186,-0.13226424,-0.42010584,0.116950884,-0.6910518,0.5880201,-0.2516005,-0.6156408,-0.20716634},{0.029443827,-0.39038342,0.07713903,-0.4259217,0.556678,0.04587824,0.43356222,-0.053434003,0.17402795,-0.04784229,0.032855924,0.106063895,-0.6796609,-0.19198978,-0.50639194,0.33060068,-0.27079234,-1.5949122,-0.041399457,0.6223029,0.4054859,-0.41021994,0.27055833,-1.4870698,-0.09053616,0.06333003,-0.28899604,0.18372771,-0.31679082,-0.10101066,0.08099134,0.34533408,-0.45878676,-0.033487976,0.5501477,-0.5806076,0.3908201,-0.19057876,-0.30859515,0.3030254,-0.41792613,0.40334952,0.7335177,-0.08760935,0.21755071,-0.43649158,-0.3949546,0.088482626,0.61244845,0.09809566,0.015758881,-0.055731107,0.08273697,-0.15591697,-0.84332585,-0.6082578,-1.2744473,0.019407257,0.45939326,-0.38686875,-0.14964798,0.28280443,0.13726547,-0.092313804},{-0.8007692,-0.07562845,0.17228739,-0.22478616,0.47118273,-0.7825197,0.0806148,-0.61575514,0.38079965,-0.18410002,0.4490848,0.4286349,-0.22568223,0.7140826,-0.2777216,-0.3189832,-0.38096163,-0.9537129,-0.34531206,-0.29325467,-0.98773205,-0.15686645,-0.4279512,0.05752744,-0.37768856,-0.7047089,-0.6713043,-0.014731505,0.18654928,0.22218674,-0.16478892,-0.6670247,-0.6490167,-0.40080267,0.3470262,0.33343837,0.23141578,-0.71348625,-0.066787966,0.46134543,0.23810835,0.54657584,-0.4250212,-0.13330433,0.70717806,-1.2884158,-0.6414822,-0.065018505,0.46731824,-0.4482762,0.011741601,-0.43320674,-0.379629,-0.27214622,-0.23882614,-0.4435294,-0.662565,-0.63697827,0.20847642,-0.6563941,-0.15107879,0.265094,0.2764829,0.006342906},{-0.41333768,-0.604962,-0.5349844,0.4524407,0.30680317,-0.44870996,-0.54454255,0.42194203,0.23792008,-0.50316566,-0.22242041,-0.09343585,0.32192063,-0.6650568,0.7502283,0.27966613,-0.33064315,-0.18719938,0.3823186,-0.29387638,-1.1461754,0.3588074,-0.113484375,0.095647916,0.19319151,-0.4151028,-0.054775774,0.21312615,0.094149955,0.22491646,-0.079808496,-0.7894266,-0.4874748,-0.18865567,-0.913963,-0.2893159,0.055115182,0.77350587,0.30885303,-0.11175111,0.34300548,-0.10036681,0.70081884,-0.6689741,0.48452732,-0.018414704,-0.009479709,0.12457668,0.029418075,-0.13203056,-0.5113045,0.055469703,0.060635094,0.18662144,-0.35890132,-0.26680598,0.1667668,0.29072437,0.47730243,0.12608711,-0.89243627,-0.22496834,-0.039342083,-0.011328034},{0.07331146,0.10612589,-0.18833415,-0.17646387,0.30670035,0.21360832,-0.34698683,-1.2780359,-0.61893207,-0.18709677,0.08838807,-0.30513105,-0.44045267,0.9346315,0.09835154,0.55341285,0.2201063,-0.15933003,-0.17354205,-0.29921004,-0.374083,0.34943765,0.38064784,0.38238788,0.5121029,-0.81427103,0.30591112,-0.6592583,0.074933924,1.262681,-0.032530516,0.3379891,-0.15878841,-0.3479506,-0.39181313,-0.08555144,0.1737755,0.5046841,0.13972811,0.33452138,0.4075891,-0.80633056,0.0012556356,0.48330143,0.1567789,-0.5706904,-0.07101962,-0.57987267,-1.5099493,-0.18051808,-0.27912584,-0.107650094,0.26414272,0.037854567,-0.53920704,0.33862972,-0.15583514,0.12816104,0.43715662,-0.039424133,-0.3009409,0.0281238,-0.3211584,-1.1267993},{0.4212317,0.6111136,-0.10624204,0.053154353,0.44060826,-1.2226893,0.066015825,-0.119967066,0.3425826,0.59317636,-0.2771657,-0.35811752,0.22572997,0.31617644,0.0008835578,0.26688936,0.25642428,-0.6526162,-0.2445612,-0.14228776,-0.57472163,0.19531076,-0.029767342,-0.19446597,0.11257146,-0.5564539,0.07373488,0.15979265,0.06401497,-1.494507,-0.19886425,-0.09860203,-0.9113602,0.58500415,0.54111004,-0.60734737,-0.48491266,-0.34998783,0.37075138,-0.14993413,0.10825309,-0.83443314,-0.26414335,-0.64113605,-0.25580826,0.7970338,0.389855,-0.53170735,-0.3769936,0.35905614,-0.3861371,-0.26114348,-0.08645861,-0.32132933,0.35395795,-0.012695378,-0.4102531,0.3438876,-0.42831242,-0.6301131,-0.39813903,0.46249554,-0.10888523,0.38302758},{-0.25638884,-0.17407283,-0.30081487,-0.9174017,0.6426836,-0.8893909,-0.68131864,0.3103616,-0.47596788,-0.4251568,-0.30284908,-0.038396128,-0.07328591,-0.5707278,-0.5285348,-0.36597008,-0.31063062,0.2784075,-0.3935583,-0.21497814,-0.6079534,0.69949174,-0.00017637694,-0.3108801,0.91253865,-0.604484,0.041989796,-0.24928536,0.06668234,0.3341274,-0.61397916,-0.3578405,0.24407075,-0.64023167,0.66014504,0.0058285086,-0.18912,0.663982,0.17284691,-0.03391335,0.62079245,-0.40266192,-0.06151559,0.72550964,-0.6973964,-0.22065999,0.63792855,0.5472203,-0.70863855,-0.19420327,0.9489659,-0.24366951,-0.7240439,-0.9281554,0.5678626,-0.21894208,-0.11149046,0.3683222,-0.56348616,-0.40304348,0.28462097,0.9670513,0.14663845,-0.25268906},{-0.15506569,-0.027151959,-0.11869784,0.155519,-0.95495176,-0.62679756,-1.1768504,-0.36784634,-0.088314764,0.18535484,-0.42242196,0.06310435,-0.48158813,0.3800798,-0.6545661,0.33647144,0.40284693,-0.19322997,0.5984741,-0.25480705,0.27701834,-0.9575158,-0.94042283,0.11276027,-0.16524519,0.6695319,0.41027847,-0.4301473,-0.06688877,0.59388876,-0.39244023,-0.71102244,-0.8632144,0.25334224,0.09642276,0.12258379,0.46648958,-0.4475809,-0.110980034,-0.059672948,0.34745705,-0.059932917,-0.4716657,-0.19846393,0.2628306,0.81296235,-0.26496378,-0.82759815,0.15627262,0.14170395,0.2817799,0.37076852,0.018071841,-0.9912406,-0.5019077,-0.361562,-0.24064808,0.015595417,-0.81615776,-0.68914217,-0.45036486,-0.08837615,0.04173488,-0.16088384},{-0.8856128,-0.9073395,0.7042744,0.34307984,-0.20487796,0.4043913,-0.078959815,0.28356296,-0.56408316,0.09300905,-0.27699137,0.67408663,-0.048007656,-0.16229673,-0.8452398,-0.17371644,-0.492157,-0.089502305,-0.041092914,-0.6194997,-0.2785075,0.40962538,0.57502913,-0.0053546624,-0.45542195,-0.054829314,-0.4924893,-0.7681872,0.26535258,0.28088096,0.52501786,-0.72306025,-0.17748557,0.3004049,0.043128837,-0.56502193,0.6153909,0.46454716,-0.40981084,0.05357282,0.011312242,-0.045537427,-0.36401942,-0.20284255,-0.99352366,-0.72376716,0.3850102,0.28566518,-0.079521336,0.43178773,0.31466788,0.16687992,-0.3454579,0.44537118,-0.40685922,-0.5193487,-0.64963686,-0.3635276,0.14900137,0.57369804,0.22788256,-0.6996244,0.1324698,0.38171032},{-0.68259645,0.2866234,-0.14130367,0.029127302,-0.07552698,-0.20101024,-0.12225693,-0.36951303,-0.13618353,0.10847408,-0.11793996,0.01945288,0.19776161,0.26520243,-0.42444605,-0.30975536,-0.11431466,-0.09672612,-0.1416764,-0.14513244,0.03984092,0.36969802,-0.66449004,-0.47242022,0.07169395,0.44172788,-0.7062283,-1.1481354,-0.38882586,0.65867275,-0.105306774,0.017660271,0.13285844,-0.48510337,-0.73924667,-0.2813681,-0.4511174,-0.17579587,-0.010747269,0.21823712,-0.9207733,-0.16174087,-0.99734044,-0.66649866,0.20225053,0.049343374,0.33682406,-0.92629683,0.14327101,0.59176517,-0.24695732,-0.1257835,0.3237129,-0.48235977,0.18367885,0.20475268,-0.31102377,-0.2789887,0.08321893,-0.8711484,-0.12055176,0.30086142,-0.65502095,-0.72968864},{-0.5550474,0.0463986,-0.018643238,0.2663407,0.27004224,0.2794014,-0.4907536,0.53961617,0.46691692,-0.21808513,-0.8518917,-0.035134844,-0.19211225,-0.046259735,-1.1468462,0.00022239819,-0.59235996,-0.5301138,-0.7603954,-0.24691036,-0.8676457,0.054960404,-0.5212198,0.19873121,0.050307546,0.42074046,-0.3771905,-0.26218057,-0.27703205,0.34642982,-0.1747837,0.5642504,-0.14813723,0.64420915,0.24305989,-0.3501056,0.07780227,-0.3611121,0.23064286,0.16684173,1.021676,0.3638359,-0.052753583,-0.25858295,-0.41947216,-0.1973783,0.35148805,0.30937433,0.43741536,0.4298961,-0.004725746,-0.57089216,0.4087201,-0.6227816,-0.2378548,0.51054555,-0.59492934,0.16977175,-0.287344,0.036728084,-0.9655904,-0.83626807,-0.0573203,-0.22508053},{-0.14294316,-0.20998223,0.19871353,0.31421015,-0.07872599,0.44888678,-0.059594244,-0.40058967,-0.44768736,0.050547425,0.56798416,0.5740062,-0.59677666,-0.66012794,-0.086628586,-0.37249807,0.31712654,-0.23073883,0.119599566,0.034988627,-0.783774,-0.88804305,-0.25498566,0.041295785,-0.118437074,-0.027165268,0.12678775,0.14924054,0.36967477,0.7348542,-0.026254842,-0.48799115,0.26690874,-0.8165191,-0.23526895,-1.1523111,-0.059104204,-0.039600424,-0.5188359,0.5329418,-0.36251327,0.8162043,-0.3365376,0.38106358,0.68318444,0.18101765,-0.66637045,-0.4055434,0.36189738,-0.028737523,0.11342918,0.26692677,-0.78548926,-0.7865237,-0.08490869,-0.383164,0.045932095,-0.35653266,-0.33987856,-0.2991052,-1.1742243,0.56811166,-0.12296745,0.33870625},{-0.1252155,-0.12737021,-0.325462,-0.06128759,0.2600924,-0.6723157,0.09261183,-0.24795473,-0.92626935,0.120998845,0.59322053,0.5292609,-0.21403322,0.0106028095,0.6569147,0.08521282,0.37048095,-0.3046602,-0.24075484,-0.5929746,-0.09369672,0.2555296,-0.6008683,-0.038570836,-0.46276355,-0.14609374,0.07456579,0.11843657,-0.71006167,0.03606736,0.20662269,-0.44839618,-0.45091107,0.6372309,-0.023902385,-0.2237523,-0.63914704,-0.23949514,-0.70985514,-1.2274951,0.090733305,-0.13664375,-0.43397602,-0.08605049,-0.105706535,-0.60735387,0.22628379,-0.44294173,0.24256623,-0.050357606,0.9592097,0.14225169,0.16311483,0.28185943,-0.5243278,-0.3933878,-0.1265503,0.044076055,0.02715424,0.14469498,-0.12018234,0.1123068,-0.014855144,-0.044127807},{-0.22870676,0.22951694,0.02776214,0.17283534,-0.23376946,-0.056638125,0.37995112,-0.3524767,-0.23875192,0.15578198,0.0024911994,-0.16363837,-0.06651134,-0.29175776,0.18701789,0.2731063,0.04914409,-0.62933767,-0.44794455,0.19010603,-0.456379,-0.46825323,0.10607815,0.36088884,-0.5341639,-0.2653081,0.25146577,-0.1136106,-0.5432384,0.46566728,0.2230326,0.37211353,-0.71198314,-0.9821028,0.41230327,0.1456446,-0.04194771,0.4599579,-0.5091207,-0.28568667,0.6557831,0.49035904,0.07319537,0.23119478,-0.4822969,-0.61035955,-0.60053754,0.07071092,0.79733276,0.07051207,-0.234045,-0.88621765,-0.2386807,-0.055634174,-0.08044196,-0.5260902,-1.0013896,-0.3959711,0.39152467,-0.84256536,-0.4424794,0.15601297,-0.15694204,-0.6406491},{0.17354517,-0.18715534,0.13657074,-0.12195053,-0.15833174,-0.16978654,0.7114773,-0.31817162,0.4494791,-1.1388857,-0.39939445,-0.05653526,-0.5326456,-0.8507921,0.097993754,0.287483,-0.24589247,-0.57337123,0.13581645,-0.56323105,0.21642806,0.0143201295,0.003468615,0.20060055,0.0028991136,0.56521535,0.27177152,-0.14018212,-0.034144662,-0.09871153,0.496188,-0.7375506,0.40086496,-0.2024663,0.24082588,-0.5858753,0.6414538,-0.49396417,-0.68228704,-0.24612714,-0.8656817,-0.029070461,0.29302797,-0.31967127,-0.96270764,-0.11870977,0.8245631,0.5182112,0.46129572,-0.69296384,-0.29154643,0.2914827,-0.71184945,-0.9861269,-0.43691042,0.36978802,-0.25433412,0.4607758,-0.4833624,0.21726896,0.11395946,-0.3296881,-0.12669398,0.775181},{-0.29091978,0.15411897,-0.54163975,0.1212579,0.013187301,0.54271466,-0.36450133,-0.21538363,-0.87185156,0.5570722,-0.63871825,0.70377535,-0.23787373,0.17367002,-0.31515214,0.37145588,-0.84602624,-0.84440595,0.43668482,-0.431186,-0.020606263,0.6216802,-0.15074019,-0.5758929,-0.001672799,-0.97283816,-0.13608322,-0.25511238,-0.24884763,-0.5195435,0.18269189,0.04503883,-0.18313639,0.16043858,-1.3307476,-0.47417468,0.6393152,0.22671996,-0.43114927,0.49807358,-0.036005702,0.38129768,0.46457466,0.78323257,0.109526835,-0.4421362,-0.6267262,0.02119328,0.3903016,0.32642254,0.04854624,-0.3527394,0.3010207,-0.222791,-0.11392124,-0.1325937,-0.45908692,-0.0038377056,-0.70909995,0.13800994,-0.12549576,-0.0122098895,0.3333446,0.037742805},{-0.8115535,1.1873085,-0.37956393,0.09961974,-0.07901499,0.2545014,0.14172082,-0.09422942,-0.18469131,-0.79110783,-0.7560733,0.5528297,-0.018227851,-0.16939397,-0.5746538,0.54786706,-0.66401285,0.2674679,0.6270844,-0.42356157,-0.8839279,-0.07386957,0.21729234,-0.23300155,0.05776257,-0.31404373,-0.8271889,-0.5924214,-0.18803208,-0.1280242,-0.2898736,-0.26513365,0.4262063,0.1502346,-0.25943628,-0.17411758,-0.59677166,0.30147323,-0.3540857,0.290479,-0.09192826,0.030906029,-0.059604518,-0.3683132,0.36467043,-0.8708476,-0.14261618,-0.07851577,0.63748765,0.014445083,0.43663564,-0.17229307,0.64012176,0.24605541,-0.1257935,0.013516271,0.10414763,-0.8190969,0.20181315,0.31465572,-1.4066567,0.25032273,0.15182841,-0.38949275},{0.4890199,0.43092713,0.016043251,0.2645703,-0.49065205,-0.60711956,0.11673499,-0.68923557,0.102141924,-0.44845676,-0.066402055,-0.07930477,-0.3073215,-0.18044473,0.39463204,0.37451702,-0.4126061,0.40868598,0.5870257,0.20405394,0.1302085,-0.28224307,0.5521291,0.54168475,-0.14768437,0.3669801,0.40019894,0.2300911,0.052823294,0.7018968,-0.18143211,-0.07830227,-0.30638012,0.1451921,0.42283112,-0.27503765,-0.66220266,-0.169794,-0.8515973,0.79432434,0.107752465,0.78092283,-0.56474966,-0.34779477,0.32464755,0.18989702,0.6236822,-0.13937457,0.18354705,-0.059765875,-0.029779384,-0.035043854,0.045964636,0.27105412,0.033175837,-0.16338985,0.12484737,0.0094824135,0.37767285,-0.41687396,-0.10987418,0.13256946,-0.036286816,-0.26275644},{0.10056973,0.06112841,-0.25811258,0.14818674,0.06470268,0.7336078,-0.23371047,-0.38588834,-0.37436625,0.019272314,-0.7538124,-0.16076529,-0.28747994,-0.27611628,-0.2090973,-0.18359849,-0.22000258,0.031233786,0.6238625,0.1256265,-0.54471785,0.13358086,-0.41015843,0.23453164,0.045701265,-0.6657373,-0.15071693,-0.06519768,0.3642415,0.6825954,-0.4097786,0.3723803,-1.3142468,-0.3673102,-0.16622691,0.49899164,0.09902497,0.24285208,0.14691707,-0.47219557,0.7182258,0.27623415,-0.73456734,-0.7177379,-0.30767566,-0.29284203,0.12742124,-0.45391873,0.48917884,0.42322248,-0.47597492,0.51204026,-0.74087656,0.08219441,0.51483345,-0.40286884,-0.24932516,-0.4174713,0.27615783,-1.2624295,-0.6481794,0.25945655,-0.5069083,-0.25311518},{-0.56227756,0.46328756,-0.56734556,-0.2523134,-0.8482115,0.23118101,-0.84624356,0.8094096,0.20121838,0.57436067,-0.014645247,-0.009601327,-0.37849763,0.2864101,-0.5481437,-0.61575186,-0.82226944,-0.1475208,-0.9802297,-0.015433843,-1.2059082,0.03868086,-0.45147178,-0.18032832,-0.6390221,0.26510024,0.34371465,-0.60992676,0.084626265,0.08263684,0.1622533,0.3792452,-0.35284862,-0.37878692,0.14192669,0.35975802,0.391751,0.42772353,-0.096835196,-0.4280406,-0.08095537,-0.1582975,0.6618505,-0.2706082,0.15359153,0.57961917,0.39181003,0.6013783,0.6436732,-0.48814672,-0.1776773,0.022188272,-0.90020865,-0.75200456,0.094857775,-0.32545334,-0.59182376,0.2636035,-0.9213137,-0.41378206,-0.12978129,-0.03787237,-0.06631794,-1.262745},{0.048875067,1.2914627,0.10638213,0.23296757,0.43749386,-0.7223438,-0.071167454,0.41330552,-0.15473783,0.12719727,0.08482495,0.10743664,-0.2563225,-0.5637,-0.32244906,0.30711743,-0.05682299,-0.22002727,0.36443225,0.351516,-0.6394316,0.18691212,0.102645084,0.37509823,-0.95847994,-0.114679314,-0.02644154,-0.6735905,0.26412225,-0.08392934,-0.15777479,-0.26365247,0.08835536,-0.2963802,-0.38234192,-0.48584455,-0.12867136,-1.2304742,-0.25449193,-0.5687427,0.68042743,-0.1325745,-0.77914774,-0.21279606,-0.08215467,-0.03628731,-0.30528703,-0.042014956,-0.09278361,0.08753223,-0.09846828,0.17552593,-0.6089241,-1.5875194,-0.35982996,0.87828034,0.024108311,-0.3643133,0.34891838,-0.4129101,-0.20481372,0.27401575,0.4742836,-0.6665312},{0.052465484,0.3490413,-0.4141035,-0.1142778,-0.8548659,-1.3630323,0.3836822,0.560264,0.15511434,-0.17908773,0.013116717,-0.18728036,-0.60080343,-0.016382655,-0.0068995035,0.110106826,-0.37910444,0.036440987,0.007896431,-0.7128894,-0.012454885,0.03120196,0.124727555,0.5604944,-0.40702558,0.006416441,0.26083025,-0.12798788,-0.38689685,-0.7456778,-0.84830546,-0.22034566,0.5795647,0.27290577,0.0032948146,-0.41435584,0.5024007,0.42137882,0.5036374,-0.26528263,0.8351828,-0.25192493,-0.18076493,0.1972303,0.295949,-0.45841783,0.43372494,0.5138099,0.60569847,-0.13119344,0.07932952,0.032193355,-0.47747037,0.41784656,-0.3373355,0.25824094,-0.042291474,0.70214134,0.10308335,0.51677436,0.019402815,-0.6193422,-0.02621687,0.4768655},{-0.09019841,-0.14804876,-0.55036414,-0.8538353,0.13812691,0.0037883527,0.16270474,0.7830602,-0.18740283,-0.5544573,-0.04523221,-0.4832153,-0.034386307,-0.74038815,0.2203777,-0.24822244,0.2571525,-0.8259609,0.03804403,-0.26042295,-0.34945694,0.2653695,-0.55306727,-0.49739817,0.29956064,-0.5796079,0.540234,0.13210562,-0.32486966,-0.1178924,0.15210915,-0.42977577,-0.2198758,-1.0686964,-0.22324312,0.4253057,0.2925448,0.06596796,-0.25592637,0.34968838,-0.14716558,0.554958,-0.47763053,-0.056387804,-1.2371665,0.43134975,0.10785636,0.12022761,-0.23990886,0.24989466,-0.15409537,-1.3821464,0.1693547,-0.22956738,-0.51097375,-0.29188943,-0.14518926,1.0478042,0.1598398,-0.697778,0.28698206,-0.117398486,-0.48043635,-0.2795972},{0.4053891,-0.33458948,0.054011907,0.41665426,0.11143518,0.15594032,0.07536261,0.13620037,-0.52537286,-0.33626407,0.55114377,-0.17112672,0.017500537,-0.3668024,-0.7118906,-0.21541537,0.01912402,-0.38881397,-0.8531314,0.100594126,-0.25964603,-0.25910792,0.029786766,0.09086557,-0.065608144,0.033781525,0.1358739,-0.35783458,0.093033075,0.6281279,0.32691553,0.3547369,-0.04162586,0.15538295,0.14150552,0.5093219,-0.26650563,0.5542801,-0.15442614,-0.16505255,-0.41811776,0.048297666,0.3726174,-0.6287149,-0.6902229,0.10989469,0.25851953,-0.10638518,0.20787615,-0.58232504,-0.62969613,-0.27140725,-0.27500522,-0.60589355,0.3916195,-0.106579706,-0.26728988,-0.6992317,0.24050298,-0.11459915,0.33765623,-0.052141085,0.4330803,0.001342914},{0.34588403,0.435302,-0.11825684,0.3562995,-0.3316787,-0.0066230665,-0.27367973,0.30308402,0.54360163,-0.17061715,-0.6548067,-0.33573884,-0.80022323,-0.2064895,0.13710248,-0.4796236,0.26706618,-0.44085404,0.004929619,-0.13314183,0.01268899,-0.18017799,-0.75217086,-0.22940634,0.32147273,0.22302227,0.04830808,0.3734435,-0.6429901,-0.16595753,-0.6132518,-0.00952144,-0.16772257,-0.04625482,-0.031854857,-0.7230756,0.4865877,0.10035928,-0.43282777,0.8931996,-0.63429976,-0.77582055,-0.02633578,-0.2208316,0.24338885,-0.38025475,-0.602802,-0.18621546,-0.07116455,0.22886871,-1.2989136,-0.3883046,0.19270858,0.3567077,0.019675467,-0.0025307632,-0.0028370202,-0.19285686,0.85741246,0.5315776,-0.23598623,-0.11262496,-0.40315664,0.117126085},{0.11093826,-0.10186705,0.41007927,-0.8625278,0.00067454437,-0.44880348,-1.0527737,-1.189427,0.10944743,-0.45778504,-0.6952391,-0.05249348,-0.03434865,0.5339723,0.12603675,0.16263625,-0.24465162,0.13388759,0.3923982,-0.16723894,-0.7785231,0.12328863,0.12215153,-0.061487284,-0.29962376,-0.18382278,0.11259268,-0.6942896,0.5983701,0.2747584,-0.5728631,0.13429178,0.064913794,-0.36438075,0.34199867,-0.12929878,0.5532718,-0.091926545,-1.2806971,-0.30387673,-0.7978942,0.56854004,0.288122,-0.3914649,0.3693693,-0.60219955,-0.2205073,-0.014138576,0.10859395,-0.5600725,0.80203915,-0.27687523,-0.2672702,0.46686545,-0.17194189,0.49789965,-0.36066887,0.21607019,0.07064255,0.38884982,-0.34323254,0.122682564,0.022652866,-0.21537362},{0.3578228,-0.09062409,-0.6352198,0.0665553,0.08879464,0.20353636,-0.17220594,0.1450358,-0.11957377,-0.22362164,-1.1252248,0.78965807,0.37056103,-0.47755563,-0.18326,0.17896762,-0.4736953,-0.26305774,-0.51798254,0.29790425,-0.39488918,0.51930964,-0.3504642,-0.38531208,0.7886967,-0.60624933,0.25503546,-1.5720285,0.35970163,0.46957532,1.111232,0.061953913,0.29670176,-0.5581725,-0.34923804,-0.31772953,-0.41005075,0.42463067,-0.29128358,-0.36055562,-0.36720344,0.44362465,-0.39299718,-0.10591749,0.23941053,-0.51164794,-0.063589595,-0.114732586,-0.07951921,0.23409835,0.1653131,0.73465425,0.05861142,-0.048481062,0.27912307,-1.0270289,-0.621454,-0.7608836,-0.17921808,-0.31875643,-0.24070464,0.012616102,-0.3703169,-0.3554807},{-0.67779493,-0.8766997,-0.8608147,0.10310047,0.008431982,-0.60902727,-0.1266704,-0.6370543,0.5030434,-0.13806117,0.33857524,-0.0361183,-0.13453798,0.689336,-0.92066354,-0.4178178,-0.008458829,-0.17779116,0.6575547,-0.66053605,-0.31801423,-0.035498135,0.1379209,-0.043358494,0.4007193,-0.6769934,0.24382532,-0.21582851,0.09985156,-0.5153209,0.1441007,0.46037304,-0.29154697,0.0686511,0.38734993,0.19017936,-0.33980337,0.07682786,0.25996393,0.011461646,0.12019696,-1.0845784,-0.012036423,-0.43223506,-0.4962446,0.31179854,-1.0461676,-0.11516509,0.108461544,0.036156666,-0.5147651,-0.70859563,-0.3363434,0.034698106,-0.1365167,-0.5899811,-1.0377102,0.0034721717,-0.3477067,-0.9972891,-0.43205538,0.022466304,-0.09112893,0.33838105},{-0.10874792,0.31578866,-0.56620806,-0.41042486,0.0033456828,-0.558803,0.14484777,-0.2538484,-0.46909684,0.27694052,-0.028506277,-0.0067000077,-1.3162965,0.4405219,0.72562367,-0.36821833,-0.21751294,0.01490786,-0.27810133,0.3604041,-0.01340284,-1.0356088,0.32669622,0.23723495,-0.028144334,-0.4302574,-0.076098494,-0.06956378,0.07783308,-0.98451805,0.5177187,-0.5042471,0.20649067,-0.05527261,-0.057323713,-0.35347158,0.2713894,0.16713798,-0.22157155,-0.54103416,0.2782215,0.23155354,-0.4780392,-0.40600276,-0.10757484,0.14577024,-0.45544866,-0.07782804,0.82975614,-0.04529696,0.19289571,0.62195194,-0.15231778,-0.172578,-0.63586557,-0.62850106,0.1197503,0.031172194,0.5048973,0.32581443,0.10700049,-0.22727203,0.50748587,-0.15674867},{0.17587362,-0.07901915,0.2348152,-0.29192406,-0.29105207,-0.13068508,-0.004753563,0.5586908,0.38259318,0.06975506,-0.17866261,0.39419752,-0.122486316,-0.6798169,0.08336061,-0.47295734,-0.69101703,0.010484045,-0.018636318,-1.0496823,0.41514382,-0.27220005,-0.50238115,-0.29919994,-0.3720415,0.35993743,0.05876829,-0.60609,-0.012136225,0.5989875,-0.29272124,0.04510634,-0.22185975,-0.34854326,0.33194742,-0.20135956,0.41319162,-0.9108624,-0.94382465,-0.8774181,0.18420857,-0.08934258,0.2571083,-0.17449763,0.40382665,0.15362346,-0.1191208,0.0023542081,-1.3755474,0.11592955,0.1055372,-0.10460154,0.08237906,-0.9617657,0.122273386,-0.51129293,0.045720577,-0.4316687,-0.066827565,0.73784244,-0.15549548,-0.110314675,0.81937593,-0.006335796},{0.12579167,0.0293562,-0.50804067,-0.34606776,-0.65677536,-0.25206575,0.49407962,0.27526084,0.0736646,-0.099059634,-0.2954002,-0.20329243,-0.12748669,0.30825898,-0.48339984,-0.47865707,-0.07851221,-0.11088053,0.68068194,0.8531935,0.70622534,-0.41837552,-0.049804144,-0.08561808,0.16507293,-0.22503118,-0.1243702,0.888453,-0.41145927,-0.1345034,0.372337,-0.08623536,-0.11347119,0.4597836,-0.8946657,0.8110417,-0.38238347,-0.40571496,-0.46753332,0.07766975,-0.4755772,0.014240889,0.052613642,-0.3684859,-0.16917317,-0.08983735,-0.48810813,-0.3642734,-0.20512585,0.5687823,0.53550375,-0.05718457,-0.1662952,-0.48937413,0.11713188,0.4409112,-0.12121246,-0.16948485,0.65646935,0.22181344,-0.08368086,-0.0024320926,0.39101598,0.35562015},{0.056158055,0.32377443,0.49413544,-0.41970712,0.5171877,-0.5199296,0.43614516,0.24935965,0.33161265,-0.24368073,0.017144404,-0.17912427,-0.5115253,0.26690045,0.2517283,0.007796862,-1.1743846,-0.16867957,0.20283633,-0.61334866,0.5828492,-0.25217107,0.72855574,-0.10507111,0.34542775,-0.43745723,0.293136,-0.23224789,-0.20725726,0.15493421,0.41943148,-0.08345908,0.43957585,0.011311298,0.21132967,-0.0012875635,0.26735103,0.0055096955,0.03323706,0.19722502,-0.15130942,-0.07900498,-0.057283677,0.14789888,0.13877456,0.28575623,-0.18460359,-0.30087692,0.2909912,-0.55627954,0.20619427,0.8361278,-0.2124321,-0.0132114515,-0.7925241,-0.079638116,0.22491564,-0.004382772,-0.27415925,-0.45171395,-1.079125,0.08363263,0.065419756,-0.49189782},{-0.69229645,-0.23446293,0.19225478,-0.23771362,-0.098798506,-0.55281156,0.11660059,0.813737,0.034202266,0.36265013,0.024904845,0.17158218,0.48229092,-0.438637,-0.92641675,-0.25716785,-0.83589745,-0.9581436,-0.98033214,-0.28039354,-0.09727768,0.53886783,0.18837078,0.64627033,-0.22733295,0.2884806,-0.77233094,-0.03363769,-0.52091837,-0.068705045,0.3963567,0.17990358,0.47135085,-0.16743857,-0.2765492,-0.18471248,0.67019147,-0.26584145,-0.20516129,-0.7085434,-0.39551747,-0.19762634,0.14965343,0.1081829,0.22588046,-0.69687647,-0.034660354,0.16990189,-0.27168468,0.59441066,-0.0868461,-0.2994404,-0.14286683,0.24476117,-0.3837296,-0.27560815,0.4593627,0.7469937,0.33104062,-0.015120615,-0.3103898,0.17036007,0.5491443,0.152433},{-0.3957746,0.29388034,-0.048483953,0.07502433,0.33823004,-1.1774495,0.26892942,0.16886519,-0.33939362,0.36701602,-0.54419756,0.13537376,-0.197893,0.51139665,0.1610946,-0.49896163,-0.08872229,0.7804937,0.75200284,-0.06158325,0.3044711,-0.59363186,0.37747017,-0.9148071,0.165343,0.3566073,0.11572329,-0.31312007,0.0345732,0.66660714,-0.09960485,0.07391483,-0.010482534,-0.18396404,-0.29889724,0.035736248,-0.88213336,-0.24556646,-0.34449726,-0.17636245,0.006270147,-0.8318059,0.0038657333,0.4010039,-0.2107916,0.060951374,0.3238499,0.3699142,-0.11685359,0.05597758,-0.4891776,-0.045636155,0.006044696,-0.8499751,-0.15987086,0.4230968,-0.47306332,-0.5068698,0.06453353,0.23014282,-0.2887405,0.57115394,-0.92047966,-0.6628059},{0.23320638,-0.18572254,-0.40136182,-0.1967106,0.5864098,0.09312934,-0.29087612,-0.5396305,-0.15734723,0.08345767,-0.098311454,-0.04606194,-0.06681919,0.016463825,0.18036143,0.7534152,-0.32383606,-0.10166805,-0.64958763,0.51433474,-0.8254996,-0.16714156,-0.36107257,-0.011863652,0.018193418,-0.37490904,0.1593305,0.56926817,0.7158422,-0.65934145,-0.29332748,0.6827942,0.22851427,0.28787234,-0.66612107,0.20953692,-0.14817907,-0.35935828,-1.2616931,0.03198314,-0.83918816,0.5117555,-0.83943737,-0.6474269,-0.13183348,0.27265483,-0.53905565,0.50889057,0.19420086,-0.16002081,0.16610847,-0.42988208,0.1437806,0.06681865,-0.8446809,-0.659137,0.51291674,-0.49542195,0.6781115,-0.4435258,-0.25604752,-0.123156324,0.067484386,-0.15870564},{-0.03244642,0.17449316,-0.5983205,-0.21010625,-0.32417697,0.012022034,-0.107208714,0.0008268026,-1.1570618,0.14755991,-0.38305455,0.53957444,-0.5310611,-0.13637923,-0.01821706,0.46003157,-1.1476372,-0.5975305,0.15036862,0.37369937,-0.77360004,-0.5056251,-0.25324458,-0.06594912,-0.030568423,-0.35805395,0.07434641,-0.16444507,0.1378437,-0.70705396,-0.6319205,-0.7858368,0.54102844,0.25361624,0.34851876,-0.092272565,0.43041536,0.5207963,-0.36050147,-0.6276362,-0.7218252,0.19547538,-0.278175,-1.0022862,0.6080124,-0.37750205,-0.17218657,-0.11933792,-0.3400298,0.33839214,0.39909118,-0.32355607,0.023560341,0.10250063,-0.09075835,-0.16588578,0.2250608,-0.3267317,0.33544156,-1.3024142,-0.86915445,-0.8237743,1.0189203,0.2855299},{-1.1426196,-0.14191572,0.26138374,-0.06969347,-0.55737007,-0.9516041,0.2182349,0.26040766,-0.110548936,-0.3823681,-0.16305546,0.76550967,-0.5121749,0.35830253,-0.6625311,0.22756352,0.15363139,-0.2264976,-0.09959341,-0.06016428,-0.31908858,-0.7189468,-0.33025047,0.28560108,0.24542445,0.17191312,-0.05846047,0.16440712,-0.18052617,0.04206512,-0.41094118,-0.70609415,-0.5851882,0.8219429,0.6678891,0.26693138,0.5015217,0.019565633,-0.18698281,-0.49172857,-0.27144608,0.38862213,0.24628775,-0.8057439,0.11045395,0.05872875,0.009970953,0.030750094,-0.7711114,-0.33303973,0.15965216,-0.13950746,-0.21294743,0.34388658,0.37921745,-0.6444308,0.2987624,-0.04280455,-0.7468178,0.5983205,-0.2951735,0.0095848525,0.5279487,-0.34579295},{-0.104883514,0.46956483,-0.029603384,-0.47756523,-0.20115809,-0.4974601,-0.14852963,-0.51532197,-0.13570078,-0.53622216,-0.8797555,0.32705334,-0.95966995,0.34935772,0.075954005,-0.3977149,-0.02391418,0.07888036,-0.2536875,-0.06991065,-1.6192067,-0.06672085,-0.8574353,0.020659605,0.8318517,0.10652459,-0.5320494,-0.34954473,-0.3812317,-0.21834385,0.0017386858,-0.060486674,-0.21373655,-0.09834185,0.52528167,-0.17156778,0.2843132,0.30657172,-0.19853993,-0.45061955,-0.62323254,-0.4200674,-0.26322433,-0.48043448,0.5415735,0.010080705,-0.02825698,-0.19293298,0.66721076,0.172987,-0.40849417,-0.26895082,-1.3066537,-0.80677694,0.5213273,0.016916493,-0.34918693,0.0039819703,-0.016898919,-0.02718505,0.49074876,-0.2870467,-0.2780456,0.5167832},{-0.3010192,0.07439033,-0.111443095,0.6508475,0.15441367,-0.60838354,-0.6210854,-0.34236997,-0.305429,-0.16778171,-0.054711487,-0.48603103,-0.09674211,-0.6539242,-0.2816081,-0.13568413,-0.62821746,0.28752226,-0.33566278,-0.34126198,-0.52898705,-0.3883475,-0.017613078,0.81156147,0.5992261,-0.34490532,-0.011927662,0.16780078,0.16949187,-0.1364207,0.3943016,-0.8826782,0.29457992,0.56935066,-0.2596683,0.65985733,0.9939187,-0.63162696,-0.023261337,-0.27621126,-0.06517042,0.40151927,0.32483128,-0.27965492,-0.78513616,-0.45094413,0.062473785,-0.54543316,-0.40162987,0.0031793609,-0.3377398,-0.32575533,0.05168771,0.28622237,-0.10533211,0.29994622,0.23263344,0.30556697,1.1782159,-0.16549349,-0.037455354,-0.71743137,-0.48236805,-0.51080555},{0.7312108,-0.013421934,-0.14480639,-0.24441682,0.4912821,-0.6332315,0.24189548,-0.43125412,0.27610478,-0.26568398,-0.12205768,0.1878097,0.12896308,0.7656537,-1.3125633,0.34979552,0.22179948,-0.49216536,-0.36115786,-0.24868877,-0.33899844,0.18658544,-0.43092042,0.36836538,-0.27416626,-0.281393,-0.6673896,-0.32405037,0.05284365,0.4348896,-0.42756775,0.0004823771,-0.30598202,0.077947035,0.9511386,0.7625746,0.5820552,-0.5166817,0.017960774,0.7502786,-0.3133353,-0.23799339,-0.65799576,0.102687575,-0.6799385,0.1801155,0.9023961,-0.010051402,-0.85664886,0.35017776,0.6516045,-1.1475556,-0.226804,-0.1749523,-1.4529326,-0.24279414,-0.12454013,-0.20038334,-0.047550574,0.08900699,-0.7633412,0.24939439,0.024460657,0.02481645},{-0.37298238,0.45545474,-0.92669743,-0.9780942,-0.13996167,-0.5895949,-0.46524397,-0.15171702,0.16781484,-0.9437933,-0.7228116,0.55885905,0.0007290727,0.010707468,-0.22981635,0.31434795,-0.024327017,0.1144134,0.23524651,-0.99327266,0.4626357,0.047082257,-0.48344505,-0.12053314,0.45641977,-0.15349472,0.048210282,0.35440177,-1.0077171,-0.37551787,0.15999344,-0.27522713,-0.21774152,-0.4475276,0.25183582,-0.38799435,0.4225045,0.11184755,-0.05541756,-0.5957224,0.7085124,-0.42597464,0.73945034,-0.5839116,-0.15868908,0.2317446,-0.29348922,-0.17322125,0.3054661,0.31677157,-0.15158921,0.031930417,-0.61254895,-0.19980685,-0.6120375,0.05271264,0.33715275,-0.5793991,-0.73273957,-0.16201589,0.043349355,-0.4640498,0.387548,-0.46902186},{-1.0306312,0.8005701,0.0916885,0.44842738,-0.674274,-0.12702368,0.26034942,0.58087885,0.3172353,0.11167011,-0.37915045,0.1707577,0.06176481,0.7926921,0.35063735,-0.23515809,-0.25471574,0.44958863,0.13479479,0.3770798,0.097526155,-0.15752555,-0.18866676,-0.5136285,-0.4062333,0.53032726,-0.33608446,-1.0030773,0.53841764,-0.039944556,-0.11080793,-1.1929126,0.030415868,-0.17453364,0.09293785,0.24965933,-0.5100122,0.65665334,0.10808785,-0.09972425,-0.09551215,0.050127495,-0.9838643,-0.14469467,-0.17661256,0.9188428,0.30409616,0.2861487,-0.24182138,-0.37599635,0.08887071,-0.60891837,-0.43760964,-0.47871414,0.5065069,0.2851162,0.39845827,-0.5768764,-0.119776264,-0.15869768,-0.56102896,-0.5307414,-0.53281206,0.2725123},{-0.47205797,-0.41388243,-0.17165469,-0.23958625,-0.5509902,-0.011697973,0.74056065,-1.6979038,-0.43995643,-0.13770707,0.23891059,0.49434888,-0.5046392,0.18616764,-0.25312516,0.989627,-0.08775383,-0.17286052,-0.27867177,0.39663556,0.30872515,0.17117931,0.50071436,0.42582485,-0.2995176,-0.5797153,-0.16175424,-0.25201026,0.3534193,0.07799207,0.05847431,-0.1982113,-0.34765923,0.14778975,-0.030798715,-0.2391185,0.89131314,-0.41819063,-0.20918064,-0.738873,0.12689422,0.84303635,-0.57148415,-0.7338042,0.03303718,0.42810082,-0.42045414,0.5640722,-0.5391015,-0.35799897,0.31630296,-0.9525346,-0.5166253,0.17676353,-0.23344563,-0.101620026,0.27443784,0.112544104,0.43585563,-0.28278747,-0.60811967,-0.05011041,-0.45263833,-0.4077528},{0.47570136,0.12016699,-0.038261037,0.14657648,-0.8395386,0.7802368,0.056166817,0.33365753,0.5768651,-0.13100323,-1.0782931,0.0047142673,0.4624393,-0.5414733,0.0172178,-0.41314587,-0.1897829,0.3340421,-0.15384063,0.11832109,-0.3382345,0.47380292,-0.031576984,-0.2596738,-0.25429705,0.21169636,0.21207754,0.18105169,0.004867537,1.2248751,0.110970676,-0.0061955918,0.4793043,-0.3626038,0.02798746,-0.4035348,-1.1956933,0.06051929,-0.52370787,0.24541683,-0.04087663,-0.14414036,0.38005212,0.1639347,0.45218462,0.07765376,0.2953395,-0.68914485,-0.58335423,0.30479082,-0.6890302,0.78328586,-0.21744408,-0.726348,-0.51197076,-0.34636223,-0.14824714,-0.14978087,-0.47015122,-0.34874594,0.33737516,0.6574345,0.5583705,-0.15445699},{-0.43014687,0.19299698,-0.3626414,0.23557268,0.04316995,-1.0286121,-0.7383676,-0.30235055,0.6222192,-0.07985545,0.06555123,-0.6781405,-0.4350701,0.2370183,0.029380545,0.5726144,-0.09837415,0.5413775,-0.25233802,0.0021674943,-0.030575046,-0.08851582,0.62131447,-0.006421243,-0.5887704,-0.70533717,-0.8632928,-0.6676896,-0.06622721,0.4715531,-0.4270313,0.28899744,-0.20007198,-0.3775464,1.2482374,0.059050024,0.54490703,-1.4121501,-0.3999357,-0.29910424,-0.0989323,-0.0584596,-0.07866033,-0.46839985,-0.21176904,0.06915655,-0.3639257,-0.52255166,0.3413752,-1.5220904,-0.47670972,0.28875983,-0.45294684,-0.37691277,0.124263965,-0.8283077,-0.029170249,-0.35005102,0.6183315,-0.84927475,0.040766254,0.3611611,-0.30624008,0.39152327},{-0.24583821,-0.24314721,-0.83253676,0.34017882,0.5689415,-0.32696468,-0.5045683,-0.41304976,-0.19329518,-0.1849931,-0.7635952,-0.40614578,-0.16925605,-0.6847456,-0.31137624,0.3536669,-0.32708403,0.07093382,0.16336687,-0.68291885,0.14499007,-0.027883656,-0.2655213,-0.094821215,1.0789824,0.37757352,0.75323606,0.2611574,0.2036848,-0.06625657,0.124796525,-0.052138936,0.16209193,-0.11155728,0.09374384,-0.42319524,0.42676634,-0.2804493,0.3160635,-0.48907083,0.085776106,0.7093027,0.034414113,0.60683966,-0.47670534,1.0195158,-0.4437743,-0.4023043,0.4005629,-0.2428689,0.24003135,0.33155036,-1.1464742,0.06778277,0.35167995,-0.61824137,-0.8238474,0.09194022,-0.6241188,-0.80629164,-0.84213203,-1.6399021,-0.72589207,0.4804974},{-0.48038104,0.027580315,-0.24348693,0.4742805,-0.43286696,0.06702019,-0.380949,0.081995964,-0.049728803,-0.619417,-0.026176604,0.23671575,0.18603928,-0.49556267,0.44395155,-0.6892504,-0.2686626,-0.5602089,0.5256441,-0.6013425,-0.60464597,-0.6609108,-0.7224373,-0.26588288,-0.5045266,0.068562575,0.45683184,-0.17460532,-0.45729822,0.10724459,-0.09051005,0.055076804,-0.7828962,-0.014470545,-1.6147724,-0.44057867,0.42858398,0.19777332,-0.9241467,0.11293862,-0.4749626,0.2317105,0.13168234,-0.5672932,0.25630793,-0.23049052,-0.58739966,0.13576932,-0.49049762,-0.83703417,0.43449768,-0.6780238,0.13655916,-0.15342627,0.27830988,-0.78663343,-0.48526326,-0.99946666,0.24224073,0.06310536,-0.123453975,-0.08673519,-0.023639295,-0.8498451},{0.16188881,0.2519599,0.2633484,0.17345867,-0.1048543,0.42809066,-0.14616702,0.10764447,1.1515323,-0.11537941,-0.39522225,0.0039053415,-0.56482375,0.49624062,-0.4284058,-0.4861474,-0.15950982,-0.21148099,-0.6254635,-0.26907468,-0.023302,-0.23501937,-0.03147338,-0.06878147,-0.45967585,-0.98239756,-0.44793084,-0.16735418,0.68293476,-0.45307934,-0.19855893,-0.24074155,-0.4768638,0.13330233,-0.24383326,-0.31955358,0.16380881,0.3368331,-0.4699288,0.52561074,0.24552499,-0.12147355,0.43620467,-0.5531237,-0.90897876,-0.25550494,-0.63872975,0.0013992834,0.57123965,-0.7050959,0.35645145,-0.42460686,0.1840283,-0.31303,-0.36156523,0.18369476,-0.8992035,0.10329507,-0.075422734,-0.24386562,-0.12499863,0.037093554,-0.21352237,0.119875126},{-0.12779225,0.060984764,-0.34371665,0.1808623,-0.12840687,-0.46468267,-0.29420018,-0.06857111,0.0345467,-0.07174642,-0.45463985,0.4408545,0.49714717,-0.52220666,-0.003144454,-0.65495384,-0.10153207,0.18341297,-0.6852642,0.13134307,0.24731942,-0.15244886,-0.021838278,-0.122781865,-0.25553977,-0.48750106,-0.24238819,-0.21895349,0.05461991,-0.4095628,0.25606182,-0.29682252,0.1314238,0.13539205,-0.1313895,-0.6261928,0.25071722,0.44721246,-0.23962645,0.8241156,-0.13859284,-0.3876582,0.5041077,0.13434881,-0.86352813,-0.4392974,-0.21008772,-1.5061133,-0.553809,0.23253782,-0.2643481,0.2867596,0.06748617,0.03573462,-0.34084648,-0.15901633,0.27860793,-0.5608401,-0.03267331,-0.22220491,0.3039733,-0.35675567,-0.101375334,-0.0072655748},{0.012521581,0.08940966,-1.1124201,0.43411404,-0.34332377,0.30529073,0.3498512,0.29160127,-0.56775993,-0.9530606,-0.63322806,0.20640703,-0.0849083,0.124376364,-0.14755867,0.28443626,0.049709357,-0.7229854,-0.2046595,-0.28398737,-0.8221136,0.356964,-0.45481443,-0.9198819,0.27786452,0.13787858,0.2877538,0.3458073,-0.94873804,-0.4440815,-0.06602343,-0.35728502,0.28742543,-0.64605516,0.1497267,-0.113120474,0.26581702,-0.26649734,-0.25653377,-0.28858855,-0.031423487,-1.419395,0.2679019,0.84586835,-0.4812697,0.014458358,-0.26009133,-0.29858184,-0.20793179,0.6893289,-0.21635282,-0.06508694,0.08487536,-0.14565614,-0.32682058,0.90403354,-0.9323343,0.59683496,-0.38978595,0.65548503,-0.24046344,-0.085888095,0.6207261,0.56925064},{-1.3144583,-0.31896758,-0.28307873,0.3030907,-0.30193186,-0.29595175,-0.70163596,0.40638906,-0.2553,0.09698552,0.106353395,0.4853619,-0.5862564,0.62429994,-0.90391314,-0.25078794,-0.4143616,-0.3017489,-0.28858718,-0.736993,-0.41082457,0.21251379,-0.0526509,0.154859,-0.41554642,-0.24603476,0.024172416,0.28360727,0.08908154,-0.6687317,-0.097467266,0.08365499,0.23004156,-0.59092176,0.1996901,-0.70112056,0.019352593,0.22981672,-0.25917935,-0.75596905,0.5877336,0.13843596,0.040262714,-0.018725917,0.3652819,-0.03449266,-0.12448348,0.19554523,-1.1966175,-0.3511644,-0.26646003,-0.5179081,-0.39029655,-0.944175,-0.30986893,-0.68587923,-0.12966315,-0.060392473,-0.41772935,-0.40950215,0.044647183,-0.13463135,-0.17895675,-0.10144187},{-0.48131558,0.0954754,-1.046766,0.2810746,-0.15315798,0.5295764,-0.23871708,0.0795041,0.14134149,-0.09299456,-0.602907,0.5819683,0.037226997,0.054099783,-0.43019402,-0.37449777,-0.37194172,-0.6308734,0.1804746,-0.15938412,-0.3764768,-0.022906413,-0.55011433,0.8059027,-0.59238726,-0.15890086,-0.29995036,-0.26095846,0.34489107,0.34660816,-0.1361606,-0.36936635,0.22882807,0.20306487,0.025059024,-0.28909,-0.12370089,-0.33004248,-0.26822895,0.23321413,0.5247855,-0.35608906,-0.9657253,-0.7244379,0.14286599,-0.74247205,-0.54458904,0.12877625,-1.4254339,0.4171759,-0.022758128,-0.8895678,0.15106334,0.44351074,-0.3397986,0.41935325,-0.32715824,0.932643,-0.34349146,-0.10205671,-0.16818771,-0.4123872,-1.0052367,0.27788034},{-0.34984103,0.24117751,0.032627545,-0.45909104,-0.58062077,-0.52703816,-0.6077179,-0.5612497,0.54615575,-0.725362,-0.69328105,0.26112098,0.18237734,0.16985875,-0.11523293,-1.0333146,-0.10038527,0.0580283,0.25988454,-0.29133177,-0.17417313,-0.7795552,-0.19584884,-0.9287802,-0.41201702,-0.35700586,0.037761685,-0.22087266,-0.5157986,-0.3256505,-0.17180815,-0.0983856,-0.3606539,-0.07553764,0.16625908,-0.115131885,0.46809682,-0.1166282,-0.06311449,0.30514112,-1.306586,0.5979098,-0.32008877,0.115639135,0.34706578,0.4389213,0.12691376,0.4103002,0.08752182,-0.50055236,0.2083878,0.5403797,-0.1707816,-0.25654712,-0.025974048,0.41694155,0.1764202,-0.13641706,-0.20317423,0.09353235,-0.34640327,0.7711513,-0.3733209,0.19487184},{0.4833798,0.42169976,-0.43110272,-0.08673234,-0.7375145,0.018375982,0.4210551,-0.3128246,-0.4485626,0.2094757,0.6786919,-0.22725628,-0.7051752,0.9558921,-0.48901397,-0.57158697,-0.30535942,-0.27143982,-0.91560477,-0.19039579,-0.24901956,0.15255424,0.20362264,-0.22801793,-0.6800528,0.29233927,-0.11450723,0.12348871,0.21218404,-0.1340255,-0.00019407965,0.14375883,-0.76773304,0.1760909,-0.401434,-0.5347685,-0.32522842,0.27021733,-0.65173095,-0.3927655,-0.23876837,-0.28889987,0.96610343,-0.11356999,-1.2179108,0.3328956,0.07788379,-1.3003358,-0.026990183,0.16594377,-0.42803663,-0.5095148,-0.022791617,0.016658451,0.2605355,-0.26145202,0.35933825,-0.47599533,0.6621862,0.25807914,0.2952846,-0.62603223,-0.2359332,-0.3791218}};
static const float layer_2_weight[8][64] = {{0.07596553,-0.062393583,-0.114469685,-0.19678876,0.12897328,0.10604544,0.04376793,0.3629855,0.011503087,-0.074850366,-0.027605878,0.16757494,-0.17611703,-0.090006426,0.096634634,-0.09616506,-0.21224347,0.12784335,-0.33270234,-0.19732924,-0.19818233,0.22027081,0.28677115,-0.2919469,-0.298843,0.0831829,0.3787984,0.17710271,0.087361485,-0.08721342,0.31662074,-0.13828033,0.3774937,0.11393285,0.29170376,0.25656956,-0.14168741,0.038087543,-0.045683607,-0.009876414,-0.2083689,-0.04190443,-0.09716726,-0.30513752,-0.114591405,-0.2390946,-0.040851194,0.1837692,0.21620393,0.198449,-0.08576369,0.20352578,0.16060007,0.16462678,-0.2180847,0.2016118,-0.123768486,0.102157794,0.13652547,-0.005387531,0.05655349,-0.16039008,0.118097186,0.2073925},{-0.013300961,0.10535954,0.2298381,-0.047138546,0.32241327,0.18581538,-0.07877204,-0.25209746,0.009189383,0.11215632,-0.19948603,-0.22550856,0.15819083,-0.27167785,-0.2731502,0.13287498,0.091666766,-0.17647061,0.18331273,-0.19298767,0.34990907,-0.112374984,0.06689158,0.14119066,0.09755185,-0.009664608,-0.107310206,-0.108737804,-0.27389017,0.048446245,-0.0810021,-0.14125702,-0.20800292,-0.33453584,-0.17605251,0.13897866,0.09010763,0.16726813,-0.2024878,-0.16099587,-0.044605523,0.26400226,0.04836543,0.015759481,0.17344181,-0.08834163,-0.30012724,0.3160572,-0.10079815,0.050722707,-0.22488332,0.049199734,0.29236326,0.18462507,-0.024183786,0.18447046,0.17792104,-0.31301787,0.30489194,-0.03242529,0.1552072,-0.3129989,-0.11560786,0.005127597},{-0.27705973,-0.2867064,0.17397404,0.37910002,-0.15556835,-0.021420006,-0.18908852,0.015407046,0.15115607,0.2787911,0.0969576,0.16798057,0.29054713,-0.12961778,0.054241158,0.19525737,0.20415626,0.15971868,-0.124388546,-0.066959575,0.08516156,-0.07622169,-0.09173661,-0.11303975,0.3707361,0.20612521,-0.15805207,-0.0029483922,-0.078053,-0.19482073,-0.40508288,0.24601837,-0.112840384,0.10315893,0.018888576,-0.313861,0.20226143,-0.20779848,0.036391184,0.12239519,-0.112097956,-0.21737932,0.32354444,0.14438426,0.24335113,-0.13110794,-0.086324595,-0.0834782,-0.099814616,-0.24902755,-0.009764944,0.040601235,-0.15888658,-0.22157736,-0.18684489,-0.24092747,0.2033579,0.07705915,-0.1964831,-0.31411123,0.2704319,0.23119149,-0.022378007,-0.28969803},{0.19914505,-0.124529466,-0.12547487,-0.0481862,-0.08737776,-0.2781469,0.37107262,0.009746651,-0.35199547,-0.062232867,0.20249307,0.13022092,-0.28752604,0.32650697,-0.062641025,-0.25710666,-0.036733694,0.29572487,-0.19230963,0.03410641,-0.10130989,0.23703527,-0.09543523,-0.07060317,-0.06357571,-0.25136003,0.044771664,-0.15600169,0.08848452,-0.19852787,0.22878559,0.17014854,0.016777923,0.17862922,0.0058054766,-0.042812686,0.2433196,0.27700144,0.43753102,-0.104261056,-0.01824911,0.015200537,-0.10758263,-0.06636269,-0.07334768,-0.19828013,0.19196545,-0.045146488,-0.043138087,0.032575935,-0.29418284,-0.08270159,-0.18924114,-0.11212016,0.16753694,-0.31444535,-0.22703987,0.2721267,-0.12370968,0.2625513,0.08854037,0.10757842,0.19179334,0.101429515},{-0.002068581,-0.00081746775,0.002293765,0.0018128469,-0.0055103973,0.0013229294,0.0014197746,0.006200263,0.00035293394,-0.004746215,0.0009842226,0.004778056,-0.0026009802,-0.008011202,-0.0018943701,0.0011884819,0.0015639543,0.0047878237,8.765749e-06,-0.00081425806,0.00077516655,0.006578353,0.0021427912,-0.00054,0.0009745148,-0.00027031422,0.001718827,0.0026163037,0.00031455015,-0.005419429,0.0055209645,0.0013837941,0.013781832,0.0010043905,0.0027331463,0.0070446874,-0.0013699662,-0.0011747383,0.004465727,-0.0003433047,-0.0035957268,-0.00047542853,-0.0031207285,0.0023964867,0.0028041047,-0.00071394455,-0.00014380664,-0.00063402107,0.007855709,-0.0024354444,-0.0023325016,0.0031603803,0.0010638387,-0.004182468,0.007697121,0.00026853458,0.0038116195,0.0025002141,0.010147404,-0.00038614174,0.00038992026,-0.0050773704,0.0030822696,0.007592742},{-0.0018458234,-0.0038141944,0.0059278747,0.0019707044,-0.0048945714,-0.0070546586,0.0010185159,-0.0056164353,0.0001754559,0.00030399286,-0.0039367466,0.009136876,-0.0017619928,-0.0057033016,-1.6275293e-05,0.0038961263,0.003928439,-0.0006236783,0.0055744424,0.002030986,0.0010489171,-0.0009928757,-0.0037894698,-0.0064821807,0.0052106003,-0.0011328774,-0.004524362,0.0002379805,0.004803838,-0.0047171353,0.0011869764,0.002033829,-4.530177e-05,0.0067805927,0.0057970467,0.0019368316,0.00860193,0.0022016603,0.0028530413,-0.00089006143,-0.0010242811,-0.0027069834,-0.0023730656,0.0021638619,0.007386037,0.0016570449,-0.0027824265,0.00038613408,0.005023868,0.0010110035,0.0030888086,0.00454139,0.0030118166,-0.0026909476,0.006992421,-0.004235099,-0.002902881,0.001506501,0.0068139113,-0.0015042779,-0.0053615244,0.00034136703,0.0018469065,0.0021943066},{0.0015488926,0.00795049,-0.0047691967,-0.011401138,0.0015914749,0.0029905222,0.0030982902,0.0016725598,0.0013998228,-0.008593579,-0.0038938732,0.0015557533,-0.0057043047,-0.005452648,-0.0024526978,-0.001300359,-0.0053239847,0.0007658792,-0.0015338003,-0.00151844,-0.008777414,-0.00091730326,0.00691852,-0.0055149617,-0.0062599164,-0.0010150002,0.005663291,0.0018921113,0.008551176,0.0034176568,0.009045283,-0.00046839434,-0.0016243056,0.00356929,0.0034393927,0.007149957,-0.003558313,0.005480712,7.929809e-05,0.0020559807,0.0002491302,0.0014921607,-0.005914111,-0.0054086205,-0.0050550457,0.0016059161,0.006195496,0.008766621,0.0033147638,0.004408411,0.0008235164,-0.0021451178,-0.0014200938,0.0041061463,0.00061268854,0.0050197383,-0.0022346925,-0.007967683,0.0016193683,0.0032660253,0.0035510173,-0.0008586117,-0.001819165,0.0045733424},{0.00036036392,0.0026054892,0.005718696,-0.004087789,-0.009865683,-0.00024759333,0.004131982,-0.0012101154,0.0015819573,0.002555183,-0.001627596,0.0024131224,-0.0013243576,-0.009796652,-0.00218928,0.006773719,0.00016023341,0.00082167384,0.004508831,0.0030311001,0.00067796843,-0.008346233,-0.0013298023,0.0015260776,0.0024487055,-0.00241703,-0.0054968046,0.0018345861,0.00033984554,-0.004560404,-0.003850105,0.004060081,-0.0016629025,-0.0030867157,-0.0027863816,-0.0009379264,-0.0075639486,0.006460524,0.0052179913,0.00097350875,-0.0033031846,-0.0018237393,0.0075221146,0.0062002447,0.004562127,0.0044864425,6.454536e-05,-0.0043755244,0.00014769641,0.00044410722,0.002272423,0.0025715285,0.004284521,0.0002414758,0.003750268,0.0008902865,0.0034578743,0.002082531,0.0063313707,-0.0011577238,0.0023025111,0.0011440094,-0.00014610878,7.0337584e-05}};
static const float layer_0_bias[64] = {[-0.8513814   1.0367459   0.67590314  0.5663574   0.01282445  0.14837821
 -0.76080585 -0.24120477  0.3959784  -0.96412545  0.81739444 -0.19371778
  1.2128595  -0.5608975  -0.6039407  -0.12240702  0.13289647  0.05302263],[-1.5794036  -0.985961   -0.01338234  0.49498904  0.3515399   0.19808279
 -0.615543   -0.09023033  0.8921474  -0.88156307 -0.61914593  0.33674577
 -0.8860441  -1.0282474  -0.7504466  -0.01646497 -0.00606392  0.3878963 ],[-0.9407173  -1.5141861   0.41951063 -0.07389747 -0.2390535  -0.4610631
  1.1442901  -0.67940605  0.7189922  -0.52170354  0.24320763  0.4637079
  0.27573642  1.0044345  -0.23594138 -0.0557752  -0.11563803  0.15569554],[ 0.45744106  0.03672336  0.46670657  0.8419298   0.6545794   0.34895867
 -0.7277329  -0.85662943  1.2447475  -1.0640932   0.47853398 -0.02995005
 -0.04204471 -0.9368458  -0.09965626 -0.1459022   0.24614191 -0.48124954],[ 2.2061868e-01 -1.6821387e-01 -5.4466987e-01 -1.7320353e-01
  3.6242175e-01  4.6313557e-04  3.8278484e-01  1.4428695e-01
 -5.6930465e-01 -1.1672472e+00  8.8370019e-01 -4.3193743e-01
  6.4027464e-01  2.3776033e+00 -6.3674736e-01 -1.5515302e-01
 -4.8471171e-02  3.7156785e-01],[-0.5072212   0.58694893 -0.6463183   0.3082729  -0.28638697  0.3288444
 -0.72947836 -0.39071634  0.44061145  0.9199385   0.18006103  0.3849017
  0.41482475  2.3614385   0.04396639 -0.05097064 -0.00408351  0.06740908],[ 1.0099777  -0.1897616  -0.18382898  0.8594448   0.15887278 -0.09299082
  0.79002064 -1.0340396  -1.6068339  -0.68950534  0.19077155 -0.5264868
  1.209427    0.69194835  0.26664665 -0.03040061  0.02593091 -0.04432497],[ 4.5899081e-01 -4.3527204e-01  9.1044754e-01  8.6605616e-02
 -1.9814057e-02  3.7203556e-01 -6.8395841e-01  4.8520711e-01
  1.3557858e+00  2.2404157e-01 -9.1963254e-02 -6.4478987e-01
 -4.9820548e-01  1.1669877e+00  7.3877525e-01 -1.3844918e-01
 -9.4320608e-04  4.5775384e-02],[-0.47610337  0.08670492  1.6485468  -0.5913869  -0.18270074 -0.07955825
  0.75579935  0.49530894  0.34097335  0.09137007  0.52698994  0.5067076
  0.47661498 -1.1847558  -0.3123612  -0.00986984  0.09244317 -0.09904689],[ 0.21804918  0.10470767  0.08630466 -0.12005532 -0.19648315  0.14015721
  0.41434106 -0.24365766 -0.00815329  0.079657   -0.2579166   0.58136433
  2.7908716  -1.981269    0.3163532  -0.17869616 -0.28280792 -0.2149063 ],[ 0.11165102 -0.19688532 -0.08811662 -0.33648437  0.04293267  0.0077513
  0.28372458  0.35206097 -0.43985707  0.05772404  0.44217297 -1.6046939
 -1.3457423  -2.8891606   0.9072568  -0.21569706  0.12532434 -0.06085687],[ 0.5785963   0.09551818  0.14518428  0.0330829   0.71789765 -0.63228077
 -0.7951675  -0.57233447 -1.0617245   0.3524924   0.82807803  0.9769296
 -0.17298883 -0.25938976 -2.0811234   0.12533322 -0.09202088 -0.53547275],[-0.38351363  0.0489918   0.04529427  0.36694252 -0.17198321  0.19118808
  0.15639207  0.4955985  -0.7247492   0.09061122 -0.502858    0.85000736
  1.4179693   0.52675444  0.47989774  0.20346338 -0.32193494 -0.18717392],[-0.33382738  0.05536669  0.20506021  0.368163   -0.5412878   0.50225097
  0.98219365 -1.2573823  -0.18949872 -0.722785   -1.0765622  -0.28697962
  0.10057255  0.25299007  0.05759778 -0.02721392 -0.06627925 -0.2552289 ],[ 1.3388222   1.4613683  -0.15388197  0.43329003  0.4226095   0.5561783
  0.7978505  -0.7302516   0.7376027   0.31791568  0.2783783   0.9568943
  0.30205116 -0.3237016  -0.22411704 -0.02402394 -0.00492556 -0.08124351],[-0.5749546  -0.04905857  0.462768    0.3122082   0.112627   -0.1613546
  0.48405564 -0.24115914 -1.4697361   0.6801918  -0.47775403 -0.07882957
 -1.1971223  -0.85437554 -0.00639226 -0.02120266 -0.29435936  0.04556384],[ 0.7898956   0.4878736   0.7809683  -0.17143796 -0.35328364 -0.4563732
  0.01199129 -0.41122997  0.3679074  -0.37417483  0.41859654 -1.8805231
 -1.5352812   1.2283739   0.06592481  0.10746488  0.21144557  0.11036249],[-0.00457803 -0.81779975 -0.8700046   0.14140968  0.15265103  0.04952094
 -0.05659987  1.0303727   0.51007277  0.79855895  0.15157835 -1.4009871
  0.97183156  1.3215891   0.56964886  0.2185241   0.00712009 -0.26069006],[ 1.2841952  -0.27335867  0.17057094  0.1065594  -0.39178902  0.14563791
  1.241539   -0.13421732  0.9331384   0.23025516  0.8516002  -0.38916314
  1.0893356  -0.46231577  0.3366827  -0.2443945   0.0431043   0.27502027],[ 0.44709906 -0.8419518  -0.04359081  0.58911276 -0.26929542  0.26977047
 -0.20808804  0.43119183  1.0177053   0.5529241  -0.05872672  0.47513336
  4.2055964   0.14652295 -0.6934029  -0.11434144  0.11046779 -0.25221035],[-0.07922418  0.05947784  1.1026815   0.0800781   0.23717262  0.49848875
 -0.24798808 -0.40587687 -0.87380004  0.5221262  -1.0039815  -0.09766784
 -0.664765   -1.7038635   0.17698361 -0.01542335 -0.12727506  0.17100562],[ 0.3455805   0.13467506 -0.363228    0.25018173 -0.39418486  0.04552696
  1.056473    0.09773833  1.1055115   0.8174863   0.32357734 -0.91598755
  1.5101753   1.017458   -1.8623555  -0.0301583   0.21693441  0.12200979],[-0.06437597  2.2189503   0.05713491  0.18671781  0.8690995  -0.49057356
 -0.43402818  0.36062893  0.59576046 -0.25432792  0.08292965  0.32696664
 -1.349599   -0.27455917 -1.0317299  -0.11847916  0.11464103 -0.19512069],[-0.1172264  -1.2971224  -0.91871434  0.6127379  -0.27975526 -0.55132663
 -0.66810197  0.7044723   0.9545512  -0.13849296 -1.0225155   2.5821557
 -0.8349341   2.0201278  -0.45636642  0.03046415 -0.16523774 -0.24111982],[-0.2107351  -0.929931   -0.9071869   0.22385584  0.10489397  0.32918546
 -0.7292183  -0.10784537  1.0390816   0.27341154 -0.00748579 -1.0961038
 -0.10457903 -1.0045931  -0.35071397 -0.41124895 -0.05622499 -0.12991685],[-1.196292   -0.17935053 -0.49462286 -0.2722697  -0.5813568   0.9050795
  0.52997875  0.622745    0.04564214 -0.26119113  0.17454241  0.9420324
  0.00885291  1.3346728  -0.74138904  0.06326883  0.15813453  0.20501988],[ 0.64207304  0.77970785  1.3818396   0.08502039  0.07893161  0.7467908
  0.41605958  0.93136567  1.016405    0.5301183  -0.10227153  0.5419382
 -0.9113528  -0.36248216 -0.7796524   0.19484456  0.05051107 -0.3891098 ],[ 0.10502806  0.1797798  -0.83888876  0.2925399   0.48615524 -0.3223646
  0.5883893  -0.6143662   0.38319755  1.417284    0.11407322  0.54447764
  1.0717298  -1.271836   -0.20203672  0.01276672  0.00278216  0.5294313 ],[ 0.48227522  0.76781297  0.66205543 -1.0639657   0.5718314   0.46875775
 -0.12069167 -0.9623493  -0.06193425  0.5353947  -0.40176818 -0.12871848
 -0.56158173 -0.08746459 -1.8060585  -0.00382522  0.01586582  0.27527508],[ 0.7689833   0.74432224  1.0407331  -0.09267241  0.49258006  0.08204687
 -0.56242466 -0.31925374  0.5668981   1.5198807  -0.11782201 -0.60363513
 -1.1456883  -0.04766827 -0.3083915   0.06427706 -0.12365167  0.04513036],[-0.02941307 -0.5546087  -0.05799524  0.77199036 -0.48544228 -0.77577305
  0.11451314  0.6266713   0.7755238  -0.3232794   0.25277984 -1.7487615
  0.00308704 -0.2177835   0.4746033   0.02216382 -0.00317543  0.01602552],[-0.1454608   0.693311   -0.42375177 -0.02987382  0.5080885  -0.24710494
 -0.071283   -0.2726576   0.5569626   1.0455148   0.1426032  -0.7020125
  2.7220438  -0.8924099  -1.2803271   0.20246458 -0.0462381  -0.06053279],[ 0.7184421   0.7896098  -0.8343947  -0.11420877 -1.1409035   0.4453451
  0.6716345  -0.3472797  -0.09408609  0.7388851  -0.4575261   0.49201992
  0.0488258  -1.2042089  -0.32879558 -0.14918336 -0.05452364  0.07198277],[ 2.0324407  -0.24924834 -0.43632692  0.24693006 -0.0539089  -0.44776076
 -0.2718088   0.86001027  0.63762236  0.45711732 -0.30130565 -1.109445
  0.298058    1.4690858  -0.25900373  0.02847347  0.02818653  0.26151863],[ 0.25298512  0.06414214 -0.06572418  0.29197213  0.42457086  1.40647
  0.3701929  -0.31566477 -0.93736935 -0.01314703 -0.61678064 -0.3962664
  0.8567128  -0.502259   -0.21930431  0.00564645 -0.00706484 -0.03664995],[-0.566689    0.35616013  0.29217935 -0.5306256  -0.30767474 -0.3050066
 -0.45468387  0.7835849  -1.1340567  -1.0579844   0.32588646  0.00703192
 -0.31560186 -0.14537862 -1.0768245  -0.08235314 -0.19448335  0.00495031],[-0.10529355 -0.00592356 -0.34495914  0.29622856  0.28376672  0.6851686
  0.7385161   0.56071824  1.2856998   0.21884677 -0.01561338  0.7957925
  0.49641985  1.2445422   0.75655574 -0.2634987   0.05473107 -0.03078405],[-0.75848764  0.34587803 -0.5207294   0.35405415 -0.30793908 -0.11855242
  0.9771919  -1.0629964   0.27867725 -0.02958903 -0.5061686  -1.5095001
  0.92585975 -2.2480154  -0.17623788  0.17096682  0.19031711  0.1751946 ],[ 0.52681094 -0.17102616  0.47328115  0.19388838  0.08670542 -0.107939
 -0.28262055 -0.06648835 -0.3588984  -0.23872463  0.3281832   2.351081
 -1.3385161  -0.86630833 -1.0804954   0.18777965  0.04674388 -0.00865911],[-0.06610048 -0.34434697 -0.9586383   0.4387159  -0.45253947 -0.78547364
 -0.586203   -0.39918756 -0.47408065  0.62982714 -1.031142   -0.11115686
 -1.037418   -1.8769392   0.5748589  -0.06051527 -0.15969597 -0.05198146],[-0.3509955   0.01557119 -0.0901727   0.5027931  -0.39724687  0.48907095
 -0.03136009  0.07126673 -1.9922823   0.22144344  1.5868123  -0.57927215
  0.3926357  -0.81730795 -0.01502447 -0.24920622 -0.11786227  0.02271345],[-0.10299163 -0.20502746 -0.30369404  0.01146578  0.1613341   0.1025103
  0.21601985  0.37875795  0.18261014  0.20068388  0.7509426   0.03552716
 -3.6432412  -0.4792802  -0.14239466  0.02236096  0.09505521  0.33148375],[ 0.21834092  0.2966795   0.55776864 -0.18329619 -0.24042943 -0.38314807
  0.02817032 -0.5611016   2.7164874  -0.9587993  -0.30507526  1.2596033
 -1.5952691  -0.22550175  0.5676951  -0.06753221 -0.13704994  0.08902181],[ 0.3479403  -0.6135692   0.7477873  -0.63626033  0.04214012  0.07250006
  0.36828902  0.3312916   0.17382728 -0.51307434 -0.3077725  -0.07727648
 -0.59897393  1.4317442   0.23938897  0.18542723 -0.1269819   0.05859105],[ 0.71704894  0.58832586 -1.6850057   0.33246619 -0.16604646 -0.18670428
  0.64521325  1.3547189  -0.00861683 -0.36976376  0.20255467  0.16304493
 -0.47703016  1.709711   -0.42723927 -0.0055709  -0.2003769   0.17062403],[-0.09786411 -0.408007   -1.9806789  -0.12500295  0.31429502  0.12571613
  0.8779127  -0.08176884  0.07269419  0.07784501  0.14912693 -0.05955806
  0.04647733  1.622484   -0.6229758  -0.03988473  0.01426215 -0.08503477],[ 2.067182   -0.9672426  -0.54396796  0.07114689 -0.07298418  0.40631172
  0.862744    0.32751676 -0.41249257 -0.37775838 -0.18655294  0.05768482
 -1.2264428   0.50315714 -0.6840063  -0.06954275  0.04302601 -0.15020269],[ 0.04651976 -0.27149287 -0.6076025   0.37590984  0.33874366 -0.1598905
 -0.4518449  -0.3191851   1.0003909  -0.7277343  -0.46219903  0.2592274
  0.3226216  -2.409368    0.3407064  -0.18569863 -0.12827107  0.11270555],[-0.63324505  1.0119383  -0.10761829  0.4508846   0.4553605   0.45745397
 -0.25221115 -0.54452616 -0.29821187  0.2205622  -0.7339342   0.8808672
 -2.3675795   0.26267868 -0.48023143 -0.00968145 -0.06257259 -0.4477514 ],[-0.79132     1.1854242  -0.6834306  -0.16802816  0.5134239   0.35368204
  0.8740514  -0.44996524 -0.10856592  0.30576965  0.6331279   0.8246677
 -0.90076727  0.18563387 -0.9148088  -0.0477998   0.13471691 -0.4523434 ],[-1.4353654   1.3873836   0.620582    0.3637611  -0.2666456  -0.45778155
  0.13782257 -0.04045293  0.690588    0.11865668 -0.30437604  0.8459795
 -1.063819   -0.2502179  -1.3151929   0.11171816 -0.23023151  0.02734474],[-6.1883003e-01 -3.9130963e-02 -2.3291193e-01 -8.0512381e-01
  5.7543635e-01 -3.3963692e-01  4.7615615e-01  5.4729201e-02
 -4.1566050e-01  3.7261206e-01 -8.0254811e-01 -6.1943549e-01
 -1.9853134e+00  6.8392271e-01  7.4117905e-01 -1.9708841e-01
  3.2118920e-02 -1.1200982e-03],[ 0.17014293 -0.51279306  0.00762725 -0.42818788  0.12272305  0.49200404
 -0.62897366 -0.02602297 -0.19862422 -0.3996048   1.2741507   0.49828672
  0.3594684   1.1038961   0.02911409 -0.23604341  0.14122306  0.36382934],[-0.7481075   0.2204754  -0.09045141  0.09821426  0.35984257  0.71548516
  0.44116974  0.23872039  0.30148008 -0.29124588 -1.8055576  -0.06043044
 -0.0438227  -1.8362743  -0.02582258  0.07666223  0.10989197 -0.2036441 ],[ 0.5178884   0.7690617   0.5705407   0.02141424  0.1817552  -0.3158363
 -0.805542    0.65321845 -0.32111362 -0.13148199 -0.05597486  0.19819601
 -0.8257423   0.8899065  -0.8596149  -0.1908833   0.01199352 -0.40427577],[-0.00729134  1.1923543  -0.268133   -0.23562385  1.1155409   0.32102397
 -0.22851022  0.09436646 -0.06982183  0.5096961   0.96726793 -0.93558794
 -1.355513   -0.97542375  0.54844135  0.04469839 -0.0255321  -0.00916562],[-8.3906138e-01  1.6352487e-01  1.6530629e+00  1.5542462e-01
 -1.3115245e-01 -2.3247439e-01  4.9772099e-02  5.2663725e-04
 -2.0315748e-01  3.3785251e-01  1.7259260e-01 -1.8095355e-01
  7.3246998e-01  9.3512529e-01 -8.4823740e-01  1.6073376e-01
 -1.9840684e-02 -2.2374730e-01],[-0.24950546 -1.0897794  -0.53300196 -0.09025669  0.18755445 -0.39676192
 -1.1167804  -0.9107077   0.06855113  0.05359282  0.72401506 -1.7699579
 -0.8761085  -0.00462798 -2.5796547   0.09825162  0.01094597 -0.17721677],[-0.05742096  1.0723504   0.20855106 -0.20219791 -0.6092448   0.67435867
 -0.7028491   0.36236197  0.11998817 -0.40929154  1.1776202  -0.5760646
 -1.621637    0.72083324 -0.738614    0.05437515 -0.18821591  0.04710038],[-0.9330012  -0.4731246  -1.5320224  -0.4074641  -0.04551857 -0.5117897
 -0.20869511 -0.723459   -1.1071905  -0.56683075  0.47932452 -0.5246811
 -1.0413058  -1.6551796  -0.05201114 -0.0063447   0.04753358  0.12306187],[-0.3438798   0.27709648 -0.04024126 -0.16207378  0.4441371  -0.13322692
 -0.3222971  -0.03716781 -0.44674528  0.23108107  0.21871105 -0.3100392
 -1.107257   -0.39894664  0.9481941  -0.01957729 -0.19600452  0.02944356],[-0.04554927 -0.08091243 -0.44374737  0.19394828 -0.36022097  0.50560826
 -0.4493855  -0.20333926  2.4151356  -0.3184707  -0.84413004  0.33692652
 -1.8679668  -1.4782435   0.13026598 -0.11600701  0.15124759 -0.29506722],[-0.06880414 -1.2613482   0.6777984  -0.04320398 -0.20369278  0.29325604
 -0.8970234   0.40717062  0.11495174 -0.03427704 -0.20679395 -2.8134825
 -0.5695374  -0.6608721   0.06495845 -0.04548714  0.03984735  0.01689432],[-0.35882437  0.6511174   0.9213756   0.08307549  0.69292694  0.27615502
  0.25007844  0.85121995  0.09176615  0.14317979  0.55472785 -0.22514726
  2.0582922   0.94191545 -0.08362017 -0.21139987 -0.15053007  0.22448042]};
static const float layer_1_bias[64] = {[ 0.13413028 -0.4623966  -0.41349456  0.52162695 -0.16002646 -0.6017213
 -0.14621122 -0.35423848  0.18119754  0.2894197   0.3884726   0.25399476
 -0.46227103  0.42073286  0.18649457 -0.6183454  -0.01816953 -0.01157502
 -0.48594785 -0.45667085  0.13271807  0.04353006  0.40684828  0.343961
 -0.37840766  0.49836725 -0.2484524   0.40443328  0.65942764 -0.24692065
 -0.94631714 -0.31370616 -0.29685438  0.32380763  0.04872611 -0.03140423
  0.58182824 -0.06944716  0.08554193 -0.18819365 -0.37421727 -0.38851765
 -0.7216255   0.26748964  1.0230137   0.28321853 -0.00656935  0.07142008
 -0.49518752 -0.3346634  -0.26031345 -0.11201011  0.13440102 -0.5276206
  0.21172099 -0.5879417   0.5265265   0.35073885 -0.04213549 -0.1204662
 -0.00611413 -0.40586394  0.51781297  0.21912827],[-0.22066525  0.23174192  0.22997206 -0.3919681  -0.5422675  -1.4644549
 -0.44715622  0.49067083  0.43611652 -0.85564464  0.42325348 -0.0670534
 -0.23442242 -0.01769239  0.43952817  0.35964444 -0.1085441  -0.02355113
  0.24408236 -0.582312   -0.3141108   0.12355614 -0.8584415  -0.06361459
 -0.66294235 -0.43467426 -0.25842533  0.345253   -0.4393807   0.20403087
  0.02721867 -0.33764812  0.4024158  -0.50641674 -0.03833444  0.00830317
  0.5019672   0.04945488  0.24965383 -0.0341864  -0.01974889 -0.04143812
 -0.6537992  -0.00490557  0.14621536 -0.31987223  0.4249255   0.5509328
  0.51002204 -0.26144296 -1.240299   -0.8233467  -0.6405987  -0.00692873
 -0.6864332   0.17148553  0.30052012  0.5909509   0.48991546 -0.20687337
 -0.0318209   0.23160215 -0.6807275   0.52410686],[ 0.5953751   0.11935555 -0.3083458  -0.2123017  -0.27820164  0.06115377
  0.00643275 -0.67163354  0.35541967  0.2820411  -1.1600307  -0.79432213
  0.17586784  0.36250615 -0.3415398   0.58133215 -0.045169   -0.29578876
 -0.0737234  -0.7715675  -0.05197917  0.39179677  0.3740705  -0.03327003
  0.94972783 -0.00170797  0.41668966 -0.09390013 -0.21166895 -0.19105858
 -0.8630864  -0.34472144  0.40790853  0.3398488   0.26899505 -0.01670652
 -0.58617085 -0.04028219 -0.18256812 -0.41872552 -0.26998782  0.15584294
 -0.44536757  0.04975215  0.35090676  0.2522647  -0.13101733 -0.5155947
 -0.36161762  0.29443455 -1.3859547   0.44581893 -0.16762176 -0.20151924
 -0.3066874   0.22820568  0.90610296  0.06784005 -0.10358213  0.18355714
 -0.43083125  0.35827246 -0.4027511   0.4709183 ],[ 0.14543803  0.05603324 -1.0494971  -0.32607698 -0.11641756 -0.2746749
 -0.02778485 -0.6067434  -0.5968319   0.5287361   0.68543214  0.08533601
 -0.21572185  0.2065691  -0.2986599  -0.07284152 -0.41496265  0.00668207
  0.9272628  -0.5927608   0.22365764  0.44178474 -0.6524309  -0.16333005
 -0.49392942 -0.13835867 -0.7361312  -0.1160562   0.8581     -0.27617174
  0.19007313  0.00504192  0.10685588 -0.8034682  -0.6884734  -0.46774286
  0.6769132  -0.00433292  0.40157127 -0.4308366  -1.0968539   0.2264646
 -0.7076845   0.07768102  0.01881578 -0.41791514 -1.0757588   0.6113068
 -0.3499517   0.76685095 -0.05580564  0.08624285 -1.0769951  -0.07725094
 -0.4681243   0.2570575  -0.02312324  0.71967185  0.3940548  -0.9495627
 -0.5508899  -0.02361657  0.0297123  -0.28555596],[ 0.34449857  0.05217996 -0.50511205 -0.07285836  0.2032686   0.04328035
 -0.5408098  -0.5259998  -0.3073682  -0.484899    0.09055275  0.9303068
 -0.12711622  0.1900393  -0.74172556 -0.22996816 -0.6255843  -0.39474195
  0.00597919  0.62544525 -1.0731423  -0.30276233 -0.5983824  -0.8222584
 -0.05982396 -0.19251055 -0.54874223  0.7985213   0.50083846 -0.11204723
  0.14505243 -0.04164094 -0.82027507  0.21342255  0.3169456   0.20896833
 -0.0196929  -0.600938   -0.3798444   0.12791923  0.04053193  0.24182522
  0.22061601 -0.80161    -0.11573023  0.24461743  0.57579136 -0.40887797
 -0.77774316 -0.17572646  0.3176079   0.36961728 -1.1027831  -0.05162778
  0.18362682 -0.5528748   0.30532324 -0.43691373 -0.24068163 -0.8529667
  0.62433016  0.7661338  -0.17377545 -0.43096527],[ 0.19009076  0.15869014 -0.8677252  -0.07362176 -0.36434987 -0.10391813
  0.06478745 -0.59626424 -0.5247486   0.23607531 -0.7254143  -0.38733682
  0.10263295 -0.4237481   0.78473604 -0.91844034  0.5876552  -0.3454957
 -0.8381574   0.57792604  0.18066904  0.33013847  0.2651204  -0.3173421
  0.39084938  0.08314544 -0.58839345  0.6247389   0.23045778  0.166919
  0.13317475 -0.99596953 -0.10382848 -0.12310369  0.08571647  0.38618055
 -0.4451457  -0.34941292 -0.40130806 -0.4109516  -0.36021695 -0.80251396
  0.56891316  0.24909803 -0.08948767  0.01904367 -0.19156034  0.02712847
  0.83153266 -0.02009688 -0.0573341   0.09080289  0.2450717  -0.7582282
 -0.4371325   0.11711324 -0.16098142  0.5111151   0.05986084  0.7145325
 -0.94860303  0.29400665  0.49862012  0.08114254],[-0.67939794 -0.5331867  -0.31221077 -0.5889418  -0.23617077 -1.0695535
  0.05464349  0.0036037   0.2041578  -0.14927123  0.20642981  0.73383194
 -0.02689892  0.49652004  1.1248825  -0.00702161 -0.24196042 -0.4411944
  0.21024127 -0.5647269   0.09946343  0.3081291  -0.82943666  0.3792505
 -0.19586074 -0.23065278 -0.00215877 -0.11318144 -1.3532214  -0.95932126
 -0.16179293 -0.19288544  0.26310185 -0.25056028  0.4267907  -0.9441197
 -0.74884504 -0.09366763 -0.9482881  -0.26924574 -0.6527594  -0.43147174
 -0.03205117  0.51028377  0.36580542 -0.02423136 -0.55564976  0.8958791
 -0.0380728  -0.03162966  0.49051914  0.86827546  0.14809175 -0.7841223
  0.03698668  0.4689844  -0.6110138   0.0876473  -0.7932225   0.02527546
 -0.8184731   0.18741257  0.03483776 -0.4974922 ],[-0.13923767  0.01443686 -0.92347056 -1.0318011  -0.14990461 -0.734162
  0.34617937  0.16836391 -0.04364336 -0.24705215  0.06050184  0.9134926
  0.02860267 -0.35495588 -0.1852262  -0.73726714 -0.28432688 -0.64743197
  0.21414112 -0.68679965  0.2397904  -0.07111871 -0.20177056  0.03856327
 -0.0742344  -0.28574446 -0.54935926 -0.68312424  1.0302744  -0.00671889
  0.19276774  0.26357532 -0.42356408 -0.15859593  0.39129627  0.3672332
  1.0994515  -0.7851507  -0.09932143 -0.5340781   0.8369353   0.18964475
 -0.93849945 -0.23462234  0.23090462  0.19841664 -0.4384      0.19149043
  0.21112794 -0.7567492   0.43089247  0.28348932 -0.43891075  0.06257939
  0.16674058 -0.3802915   0.7554752  -0.4400798  -0.55290645 -0.04888868
 -0.5523438   0.23076743 -0.6714124  -0.51687104],[ 0.04966345 -1.3053373  -0.5357616  -0.96325487 -0.1350101  -0.11656727
 -1.129616   -0.3871185   0.14315952 -0.70864296  0.02272375 -0.28684032
 -0.26629248 -0.3613874  -0.87205505  0.03191395 -0.7666029  -0.30215225
 -0.48209512  0.63667315 -0.78371197  0.5450898   0.33541098 -0.7484409
  0.24814905 -0.1388908   0.1653959   0.37413928 -0.22033101  0.64179933
 -0.00815662  0.07725614 -0.7891236  -1.2729774   0.7986028  -0.18239343
  0.37492728 -0.5522206  -0.33720452  0.41248837  0.37784636 -0.17736891
 -0.73443264 -0.46748078 -0.39776573 -0.6483594   0.06973822  0.02411561
  0.03450681 -0.9600518   0.2444279   0.33974072 -0.6654825   0.16259192
 -0.33158332 -0.5874092  -0.22223997  0.4452623   0.31525537  0.04344378
 -0.03816876 -0.05027393  0.24834283  0.34575066],[-0.14057884  0.46294144  0.05940974 -0.29565     0.43130255 -0.39271453
  0.2739353   0.6645993  -0.42972448 -0.5907287  -0.5615448   0.2439047
 -0.13757467  0.18907036  0.24158634 -0.9670775  -0.20557196 -0.29430938
 -0.09713972 -0.24099472  0.50399256 -0.18086569  0.45969346 -0.2825431
  0.0794796  -0.30743837 -0.28831008  0.5047569  -0.37000218 -0.40204507
  0.50669664 -0.3107899   0.6629503   0.5355449   0.49221578 -0.326447
  0.7525267   0.00899334 -0.40284255  0.35602257  0.32009786 -1.1045929
 -0.68088794 -0.1747853  -0.20450264 -0.50618774 -0.5433562  -0.07936113
 -0.12994821  0.43739045  0.47120047  0.5716965  -0.2783355  -0.44384286
 -0.03832111  0.5334221   0.17339051 -0.17638919  0.8860206  -0.01146366
  0.05784982 -0.62486625 -0.9894529  -0.80640286],[-3.73798698e-01  2.29103595e-01  3.75762075e-01  4.47227269e-01
 -3.71920139e-01 -6.60275051e-04 -5.22326007e-02 -8.06010306e-01
  4.39255714e-01  3.75873707e-02  4.57823783e-01  1.79823056e-01
 -4.22711402e-01 -2.49077067e-01  3.71756285e-01 -3.12255293e-01
 -1.29680052e-01 -6.19382262e-01 -5.16457558e-01 -4.23229545e-01
 -5.20332634e-01  1.22618362e-01  6.28639311e-02  2.62074262e-01
  1.96016669e-01 -8.97132829e-02  5.73775023e-02  5.34606397e-01
  3.21734734e-02 -3.29452217e-01  2.19888046e-01  2.65847355e-01
  2.38676742e-01  7.39551261e-02  4.31255221e-01  2.20114961e-01
  3.07206661e-01  1.98080689e-01 -2.52684689e+00 -3.51282686e-01
  9.88343656e-02 -2.73567051e-01  8.72568309e-01 -5.44593275e-01
 -5.63748538e-01  5.53361475e-01  4.58072424e-01 -2.13321745e-01
 -9.25232917e-02 -4.79421318e-01 -1.78810388e-01  4.16119963e-01
 -7.41479695e-02  2.39115730e-01  3.11658569e-02 -5.61218619e-01
 -1.32264242e-01 -4.20105845e-01  1.16950884e-01 -6.91051781e-01
  5.88020086e-01 -2.51600504e-01 -6.15640819e-01 -2.07166344e-01],[ 0.02944383 -0.39038342  0.07713903 -0.4259217   0.556678    0.04587824
  0.43356222 -0.053434    0.17402795 -0.04784229  0.03285592  0.10606389
 -0.6796609  -0.19198978 -0.50639194  0.33060068 -0.27079234 -1.5949122
 -0.04139946  0.6223029   0.4054859  -0.41021994  0.27055833 -1.4870698
 -0.09053616  0.06333003 -0.28899604  0.18372771 -0.31679082 -0.10101066
  0.08099134  0.34533408 -0.45878676 -0.03348798  0.5501477  -0.5806076
  0.3908201  -0.19057876 -0.30859515  0.3030254  -0.41792613  0.40334952
  0.7335177  -0.08760935  0.21755071 -0.43649158 -0.3949546   0.08848263
  0.61244845  0.09809566  0.01575888 -0.05573111  0.08273697 -0.15591697
 -0.84332585 -0.6082578  -1.2744473   0.01940726  0.45939326 -0.38686875
 -0.14964798  0.28280443  0.13726547 -0.0923138 ],[-0.8007692  -0.07562845  0.17228739 -0.22478616  0.47118273 -0.7825197
  0.0806148  -0.61575514  0.38079965 -0.18410002  0.4490848   0.4286349
 -0.22568223  0.7140826  -0.2777216  -0.3189832  -0.38096163 -0.9537129
 -0.34531206 -0.29325467 -0.98773205 -0.15686645 -0.4279512   0.05752744
 -0.37768856 -0.7047089  -0.6713043  -0.0147315   0.18654928  0.22218674
 -0.16478892 -0.6670247  -0.6490167  -0.40080267  0.3470262   0.33343837
  0.23141578 -0.71348625 -0.06678797  0.46134543  0.23810835  0.54657584
 -0.4250212  -0.13330433  0.70717806 -1.2884158  -0.6414822  -0.0650185
  0.46731824 -0.4482762   0.0117416  -0.43320674 -0.379629   -0.27214622
 -0.23882614 -0.4435294  -0.662565   -0.63697827  0.20847642 -0.6563941
 -0.15107879  0.265094    0.2764829   0.00634291],[-0.41333768 -0.604962   -0.5349844   0.4524407   0.30680317 -0.44870996
 -0.54454255  0.42194203  0.23792008 -0.50316566 -0.22242041 -0.09343585
  0.32192063 -0.6650568   0.7502283   0.27966613 -0.33064315 -0.18719938
  0.3823186  -0.29387638 -1.1461754   0.3588074  -0.11348438  0.09564792
  0.19319151 -0.4151028  -0.05477577  0.21312615  0.09414995  0.22491646
 -0.0798085  -0.7894266  -0.4874748  -0.18865567 -0.913963   -0.2893159
  0.05511518  0.77350587  0.30885303 -0.11175111  0.34300548 -0.10036681
  0.70081884 -0.6689741   0.48452732 -0.0184147  -0.00947971  0.12457668
  0.02941808 -0.13203056 -0.5113045   0.0554697   0.06063509  0.18662144
 -0.35890132 -0.26680598  0.1667668   0.29072437  0.47730243  0.12608711
 -0.89243627 -0.22496834 -0.03934208 -0.01132803],[ 7.33114630e-02  1.06125891e-01 -1.88334152e-01 -1.76463872e-01
  3.06700349e-01  2.13608325e-01 -3.46986830e-01 -1.27803588e+00
 -6.18932068e-01 -1.87096775e-01  8.83880705e-02 -3.05131048e-01
 -4.40452665e-01  9.34631526e-01  9.83515382e-02  5.53412855e-01
  2.20106304e-01 -1.59330025e-01 -1.73542053e-01 -2.99210042e-01
 -3.74083012e-01  3.49437654e-01  3.80647838e-01  3.82387877e-01
  5.12102902e-01 -8.14271033e-01  3.05911124e-01 -6.59258306e-01
  7.49339238e-02  1.26268101e+00 -3.25305164e-02  3.37989092e-01
 -1.58788413e-01 -3.47950608e-01 -3.91813129e-01 -8.55514407e-02
  1.73775494e-01  5.04684091e-01  1.39728114e-01  3.34521383e-01
  4.07589108e-01 -8.06330562e-01  1.25563564e-03  4.83301431e-01
  1.56778902e-01 -5.70690393e-01 -7.10196197e-02 -5.79872668e-01
 -1.50994933e+00 -1.80518076e-01 -2.79125839e-01 -1.07650094e-01
  2.64142722e-01  3.78545672e-02 -5.39207041e-01  3.38629723e-01
 -1.55835137e-01  1.28161043e-01  4.37156618e-01 -3.94241326e-02
 -3.00940901e-01  2.81237997e-02 -3.21158409e-01 -1.12679935e+00],[ 4.21231687e-01  6.11113608e-01 -1.06242038e-01  5.31543531e-02
  4.40608263e-01 -1.22268927e+00  6.60158247e-02 -1.19967066e-01
  3.42582613e-01  5.93176365e-01 -2.77165711e-01 -3.58117521e-01
  2.25729972e-01  3.16176444e-01  8.83557776e-04  2.66889364e-01
  2.56424278e-01 -6.52616203e-01 -2.44561195e-01 -1.42287761e-01
 -5.74721634e-01  1.95310757e-01 -2.97673419e-02 -1.94465965e-01
  1.12571463e-01 -5.56453884e-01  7.37348795e-02  1.59792647e-01
  6.40149713e-02 -1.49450696e+00 -1.98864251e-01 -9.86020267e-02
 -9.11360204e-01  5.85004151e-01  5.41110039e-01 -6.07347369e-01
 -4.84912664e-01 -3.49987835e-01  3.70751381e-01 -1.49934128e-01
  1.08253092e-01 -8.34433138e-01 -2.64143348e-01 -6.41136050e-01
 -2.55808264e-01  7.97033787e-01  3.89854997e-01 -5.31707346e-01
 -3.76993597e-01  3.59056145e-01 -3.86137098e-01 -2.61143476e-01
 -8.64586085e-02 -3.21329325e-01  3.53957951e-01 -1.26953777e-02
 -4.10253108e-01  3.43887597e-01 -4.28312421e-01 -6.30113125e-01
 -3.98139030e-01  4.62495536e-01 -1.08885229e-01  3.83027583e-01],[-2.5638884e-01 -1.7407283e-01 -3.0081487e-01 -9.1740167e-01
  6.4268363e-01 -8.8939089e-01 -6.8131864e-01  3.1036159e-01
 -4.7596788e-01 -4.2515680e-01 -3.0284908e-01 -3.8396128e-02
 -7.3285908e-02 -5.7072783e-01 -5.2853483e-01 -3.6597008e-01
 -3.1063062e-01  2.7840751e-01 -3.9355829e-01 -2.1497814e-01
 -6.0795343e-01  6.9949174e-01 -1.7637694e-04 -3.1088009e-01
  9.1253865e-01 -6.0448402e-01  4.1989796e-02 -2.4928536e-01
  6.6682339e-02  3.3412740e-01 -6.1397916e-01 -3.5784051e-01
  2.4407075e-01 -6.4023167e-01  6.6014504e-01  5.8285086e-03
 -1.8911999e-01  6.6398197e-01  1.7284691e-01 -3.3913352e-02
  6.2079245e-01 -4.0266192e-01 -6.1515588e-02  7.2550964e-01
 -6.9739640e-01 -2.2065999e-01  6.3792855e-01  5.4722029e-01
 -7.0863855e-01 -1.9420327e-01  9.4896591e-01 -2.4366951e-01
 -7.2404391e-01 -9.2815542e-01  5.6786257e-01 -2.1894208e-01
 -1.1149046e-01  3.6832219e-01 -5.6348616e-01 -4.0304348e-01
  2.8462097e-01  9.6705133e-01  1.4663845e-01 -2.5268906e-01],[-0.15506569 -0.02715196 -0.11869784  0.155519   -0.95495176 -0.62679756
 -1.1768504  -0.36784634 -0.08831476  0.18535484 -0.42242196  0.06310435
 -0.48158813  0.3800798  -0.6545661   0.33647144  0.40284693 -0.19322997
  0.5984741  -0.25480705  0.27701834 -0.9575158  -0.94042283  0.11276027
 -0.16524519  0.6695319   0.41027847 -0.4301473  -0.06688877  0.59388876
 -0.39244023 -0.71102244 -0.8632144   0.25334224  0.09642276  0.12258379
  0.46648958 -0.4475809  -0.11098003 -0.05967295  0.34745705 -0.05993292
 -0.4716657  -0.19846393  0.2628306   0.81296235 -0.26496378 -0.82759815
  0.15627262  0.14170395  0.2817799   0.37076852  0.01807184 -0.9912406
 -0.5019077  -0.361562   -0.24064808  0.01559542 -0.81615776 -0.68914217
 -0.45036486 -0.08837615  0.04173488 -0.16088384],[-0.8856128  -0.9073395   0.7042744   0.34307984 -0.20487796  0.4043913
 -0.07895982  0.28356296 -0.56408316  0.09300905 -0.27699137  0.67408663
 -0.04800766 -0.16229673 -0.8452398  -0.17371644 -0.492157   -0.0895023
 -0.04109291 -0.6194997  -0.2785075   0.40962538  0.57502913 -0.00535466
 -0.45542195 -0.05482931 -0.4924893  -0.7681872   0.26535258  0.28088096
  0.52501786 -0.72306025 -0.17748557  0.3004049   0.04312884 -0.56502193
  0.6153909   0.46454716 -0.40981084  0.05357282  0.01131224 -0.04553743
 -0.36401942 -0.20284255 -0.99352366 -0.72376716  0.3850102   0.28566518
 -0.07952134  0.43178773  0.31466788  0.16687992 -0.3454579   0.44537118
 -0.40685922 -0.5193487  -0.64963686 -0.3635276   0.14900137  0.57369804
  0.22788256 -0.6996244   0.1324698   0.38171032],[-0.68259645  0.2866234  -0.14130367  0.0291273  -0.07552698 -0.20101024
 -0.12225693 -0.36951303 -0.13618353  0.10847408 -0.11793996  0.01945288
  0.19776161  0.26520243 -0.42444605 -0.30975536 -0.11431466 -0.09672612
 -0.1416764  -0.14513244  0.03984092  0.36969802 -0.66449004 -0.47242022
  0.07169395  0.44172788 -0.7062283  -1.1481354  -0.38882586  0.65867275
 -0.10530677  0.01766027  0.13285844 -0.48510337 -0.73924667 -0.2813681
 -0.4511174  -0.17579587 -0.01074727  0.21823712 -0.9207733  -0.16174087
 -0.99734044 -0.66649866  0.20225053  0.04934337  0.33682406 -0.92629683
  0.14327101  0.59176517 -0.24695732 -0.1257835   0.3237129  -0.48235977
  0.18367885  0.20475268 -0.31102377 -0.2789887   0.08321893 -0.8711484
 -0.12055176  0.30086142 -0.65502095 -0.72968864],[-5.5504739e-01  4.6398599e-02 -1.8643238e-02  2.6634070e-01
  2.7004224e-01  2.7940139e-01 -4.9075359e-01  5.3961617e-01
  4.6691692e-01 -2.1808513e-01 -8.5189170e-01 -3.5134844e-02
 -1.9211225e-01 -4.6259735e-02 -1.1468462e+00  2.2239819e-04
 -5.9235996e-01 -5.3011382e-01 -7.6039541e-01 -2.4691036e-01
 -8.6764568e-01  5.4960404e-02 -5.2121979e-01  1.9873121e-01
  5.0307546e-02  4.2074046e-01 -3.7719050e-01 -2.6218057e-01
 -2.7703205e-01  3.4642982e-01 -1.7478371e-01  5.6425041e-01
 -1.4813723e-01  6.4420915e-01  2.4305989e-01 -3.5010561e-01
  7.7802271e-02 -3.6111209e-01  2.3064286e-01  1.6684173e-01
  1.0216759e+00  3.6383590e-01 -5.2753583e-02 -2.5858295e-01
 -4.1947216e-01 -1.9737829e-01  3.5148805e-01  3.0937433e-01
  4.3741536e-01  4.2989609e-01 -4.7257459e-03 -5.7089216e-01
  4.0872011e-01 -6.2278157e-01 -2.3785479e-01  5.1054555e-01
 -5.9492934e-01  1.6977175e-01 -2.8734401e-01  3.6728084e-02
 -9.6559042e-01 -8.3626807e-01 -5.7320300e-02 -2.2508053e-01],[-0.14294316 -0.20998223  0.19871353  0.31421015 -0.07872599  0.44888678
 -0.05959424 -0.40058967 -0.44768736  0.05054742  0.56798416  0.5740062
 -0.59677666 -0.66012794 -0.08662859 -0.37249807  0.31712654 -0.23073883
  0.11959957  0.03498863 -0.783774   -0.88804305 -0.25498566  0.04129579
 -0.11843707 -0.02716527  0.12678775  0.14924054  0.36967477  0.7348542
 -0.02625484 -0.48799115  0.26690874 -0.8165191  -0.23526895 -1.1523111
 -0.0591042  -0.03960042 -0.5188359   0.5329418  -0.36251327  0.8162043
 -0.3365376   0.38106358  0.68318444  0.18101765 -0.66637045 -0.4055434
  0.36189738 -0.02873752  0.11342918  0.26692677 -0.78548926 -0.7865237
 -0.08490869 -0.383164    0.0459321  -0.35653266 -0.33987856 -0.2991052
 -1.1742243   0.56811166 -0.12296745  0.33870625],[-0.1252155  -0.12737021 -0.325462   -0.06128759  0.2600924  -0.6723157
  0.09261183 -0.24795473 -0.92626935  0.12099884  0.59322053  0.5292609
 -0.21403322  0.01060281  0.6569147   0.08521282  0.37048095 -0.3046602
 -0.24075484 -0.5929746  -0.09369672  0.2555296  -0.6008683  -0.03857084
 -0.46276355 -0.14609374  0.07456579  0.11843657 -0.71006167  0.03606736
  0.20662269 -0.44839618 -0.45091107  0.6372309  -0.02390238 -0.2237523
 -0.63914704 -0.23949514 -0.70985514 -1.2274951   0.0907333  -0.13664375
 -0.43397602 -0.08605049 -0.10570654 -0.60735387  0.22628379 -0.44294173
  0.24256623 -0.05035761  0.9592097   0.14225169  0.16311483  0.28185943
 -0.5243278  -0.3933878  -0.1265503   0.04407606  0.02715424  0.14469498
